tree
version=v4
num_class=1
num_tree_per_iteration=1
label_index=0
max_feature_idx=19
objective=binary sigmoid:1
feature_names=cat_feat_0 cat_feat_1 cat_feat_2 cat_feat_3 cat_feat_4 num_feat_0 num_feat_1 num_feat_2 num_feat_3 num_feat_4 num_feat_5 num_feat_6 num_feat_7 num_feat_8 num_feat_9 num_feat_10 num_feat_11 num_feat_12 num_feat_13 num_feat_14
feature_infos=-1:2:1:0 -1:3:2:1:0 -1:1:4:3:0:2 -1:2:0:1 -1:0:2:3:1 [-8.5486092956997748:9.3534813873742593] [-8.7298758216480437:9.095955770275614] [-13.191678610747019:13.064773713321706] [-9.8920281470958162:7.9140923952175495] [-17.358101402147589:16.534376967225469] [-18.471493516552645:16.747876073469662] [-7.0620397465894769:9.984186168659603] [-9.5037100292637611:8.8090891401492719] [-7.734528009366108:8.1934742782678818] [-21.158868386284141:21.139154141205399] [-9.6283791355592765:8.7483676266885446] [-19.140822135714767:20.25321154970521] [-9.564864766850393:8.2336274646731944] [-8.2317412959032854:10.940767282312704] [-8.4161550845098319:8.6262712623944484]
tree_sizes=3447 3481 3480 3478 3481 3491 3490 3489 3482 3483 3478 3489 3464 3482 3467 3503 3467 3482 3488 3485 3498 3502 3498 3490 3481 3481 3476 3490 3480 3491 3492 3491 3492 3491 3494 3474 3488 3491 3494 3472 3481 3482 3481 3477 3491 3499 3489 3491 3488 3498 3493 3496 3492 3488 3489 3507 3498 3498 3496 3512 3496 3496 3488 3499 3506 3505 3491 3505 3505 3494 3502 3501 3495 3501 3499 3497 3500 3499 3501 3504 3523 3489 3520 3488 3485 3506 3498 3493 3503 3498 3511 3496 3500 3508 3514 3510 3483 3502 3509 3510

Tree=0
num_leaves=31
num_cat=0
split_feature=17 13 16 15 6 7 19 6 8 7 8 9 7 8 17 8 18 5 19 6 11 12 19 8 19 12 13 12 8 19
split_gain=13247.8 8043.97 5465.39 4718.75 2098.18 1896.77 1776.88 1076.73 1490.62 852.652 816.282 773.677 728.592 604.171 598.834 656.99 592.119 540.248 534.454 435.469 611.536 415.466 395.345 724.346 349.082 508.905 302.09 289.425 288.386 370.604
threshold=-0.12854952481904994 0.89632008116358963 1.9602257815577755 -0.37960933051748519 -0.42118005518388263 0.097125003643249483 2.2671305826327712 0.21191973981889692 -1.5551893922944764 2.656921261248717 -0.27512328573869699 1.3650411839957075 3.312378912289065 -0.82412865871494601 0.79419191058519478 0.35549507820088827 1.1481127175842698 1.2049034997638148 -0.12094107219149351 0.64143712865930025 1.1028434623066155 0.55984105130660011 0.80585442229578264 -0.74044091526321221 -0.2004150940201038 -0.23453009983215009 -0.10259215118869801 3.1055011742329448 -0.35437674193873947 0.69761182618124928
decision_type=2 2 2 2 2 2 2 2 2 2 2 2 2 2 2 2 2 2 2 2 2 2 2 2 2 2 2 2 2 2
left_child=3 14 4 5 9 6 11 8 24 -3 -8 22 28 18 15 26 -10 27 -4 -15 -21 -17 -1 -24 25 -7 -2 -6 29 -5
right_child=1 2 13 12 17 7 10 -9 16 -11 -12 -13 -14 19 -16 21 -18 -19 -20 20 -22 -23 23 -25 -26 -27 -28 -29 -30 -31
leaf_value=0.079002414427705586 -0.085558413394455593 0.064380933310989527 0.058239216764319555 0.079706603024924258 -0.08890608382879002 0.065603258050738314 -0.082833800547304645 -0.072620034356629004 0.076589826921380819 -0.033651233497102549 0.061327371801410221 -0.049779345362151332 0.0026540369450717928 0.085126452575534403 -0.0891603933592892 -0.062448705321315995 -0.012303014097844534 0.02375702301691807 -0.040944744866887865 0.076126321052588541 -0.073432037274070258 0.057777060684625868 -0.049917833661734884 0.075510685725781082 -0.091396588946969684 -0.077141888367614847 -0.034175664122870215 -0.0053280275003857215 0.095420148445911443 0.013425636846028356
leaf_weight=1517.2496382594109 863.49979412555695 486.74988394975662 317.24992436170578 1186.2497171759605 1458.9996521472931 111.74997335672379 379.24990957975388 760.49981868267059 527.49987423419952 407.49990284442902 132.49996840953827 154.24996322393417 278.74993354082108 1620.9996135234833 3963.7490549683571 114.74997264146805 290.49993073940277 128.24996942281723 237.49994337558746 177.24995774030685 111.24997347593307 192.24995416402817 187.24995535612106 298.74992877244949 346.24991744756699 141.49996626377106 427.74989801645279 111.49997341632843 2811.9993295669556 256.49993884563446
leaf_count=6069 3454 1947 1269 4745 5836 447 1517 3042 2110 1630 530 617 1115 6484 15855 459 1162 513 950 709 445 769 749 1195 1385 566 1711 446 11248 1026
internal_value=0.001 -0.0372471 0.00838982 0.0442968 -0.0422818 0.0100015 0.0382545 -0.0246239 0.00112637 0.0197087 -0.0455082 0.0581227 0.0809655 0.0617089 -0.0787426 -0.0529058 0.0450209 -0.0749146 0.0157765 0.0750532 0.0184543 0.0128393 0.0664311 0.0271846 -0.0587664 -0.0141537 -0.0685369 -0.0829723 0.086096 0.0679228
internal_weight=20000 10619.2 5057.25 9380.75 2593 4847.25 2669.25 2178 1417.5 894.25 511.75 2157.5 4533.5 2464.25 5562 1598.25 818 1698.75 554.75 1909.5 288.5 307 2003.25 486 599.5 253.25 1291.25 1570.5 4254.75 1442.75
internal_count=80000 42477 20229 37523 10372 19389 10677 8712 5670 3577 2047 8630 18134 9857 22248 6393 3272 6795 2219 7638 1154 1228 8013 1944 2398 1013 5165 6282 17019 5771
is_linear=0
shrinkage=1


Tree=1
num_leaves=31
num_cat=0
split_feature=17 13 6 15 7 19 16 5 9 8 14 7 13 11 14 8 11 5 18 8 19 17 13 6 8 12 17 5 14 16
split_gain=11976.1 7274.53 4915.96 4268.25 1724.06 1696.47 1588.21 1020.26 973.004 821.832 770.33 662.144 616.021 618.381 778.704 496.167 487.002 455.52 413.871 408.302 638.798 389.769 663.557 366.654 453.635 365.382 338.392 314.352 308.019 303.867
threshold=-0.12854952481904994 0.97387638642576746 -0.34364641341594193 -0.37960933051748519 0.70276865857734105 2.2671305826327712 3.1060270547407041 -1.6022631287910418 1.2807592923405309 -0.33505420763740035 3.0670190734119074 3.1968290590003487 -0.20723982477335098 -0.037856054019719469 1.1969857794442544 -1.3873866560455357 1.1688449302333654 1.6518177518660635 -0.17883528421102177 -1.3873866560455357 -1.2928256492882924 -1.2745235563523949 -0.33712866049538098 0.42981539343334046 -2.0415277370597171 3.0429569554736648 2.0308069984350592 1.1841672088377886 1.1649006411180054 -1.2453779103911269
decision_type=2 2 2 2 2 2 2 2 2 2 2 2 2 2 2 2 2 2 2 2 2 2 2 2 2 2 2 2 2 2
left_child=3 12 7 4 5 8 17 18 21 -7 23 -5 -2 14 -14 -12 -8 25 -3 20 -9 -1 -23 24 -6 -4 -16 -15 -27 -26
right_child=1 2 6 11 10 9 16 19 -10 -11 15 -13 13 27 26 -17 -18 -19 -20 -21 -22 22 -24 -25 29 28 -28 -29 -30 -31
leaf_value=0.073701404437088447 -0.086896793259386082 0.05040194101761758 -0.081887221769040286 0.081250383667432119 -0.068657554861109915 -0.082105437287731717 0.077335346526625562 0.075308674086580665 -0.049824128133211472 0.056132400240359037 -0.08119094740966426 0.0049585455671630353 -0.061768257434366036 -0.084490425266739319 0.07697249119522652 0.068141875892764797 -0.028101302627061765 0.032053544868177512 -0.053999621807841597 0.078946026422378537 -0.034010831639009129 -0.040551867556207183 0.060791531194403864 -0.078365715275553138 -0.053630152767354333 -0.092590071743176947 -0.04338350118940975 -0.02246484099801542 0.063059301206916482 0.029333381674660076
leaf_weight=1505.3187905400991 3703.6701445579529 145.08461217582226 1519.3790422081947 4220.2594367414713 372.09926654398441 421.26880133152008 279.05745948851109 318.2341578155756 226.05829422175884 144.35754480957985 70.11263345181942 304.95531275868416 377.22395278513432 1057.0423342585564 225.22333611547947 269.15875931084156 180.26526261866093 105.9616681188345 274.58657741546631 1719.0804886966944 230.3651380687952 232.70862068235874 527.99658203125 554.26891922950745 159.63010331988335 51.240620389580727 78.847018122673035 253.20736652612686 83.712940394878387 357.65668731927872
leaf_count=6030 14843 581 6089 16914 1491 1688 1118 1274 905 578 281 1220 1511 4235 902 1078 722 424 1099 6887 922 932 2115 2220 639 205 316 1014 335 1432
internal_value=3.21145e-08 -0.0363945 0.00822483 0.0411988 0.00856339 0.0313492 -0.0468421 0.0537073 0.0490922 -0.0468248 -0.0305141 0.0761091 -0.0748383 -0.0524133 -0.0137754 0.0372813 0.0359558 -0.068447 -0.0179069 0.0669607 0.0294038 0.0589601 0.0297894 -0.0464466 -0.0265544 -0.0748841 0.0457636 -0.0725039 0.00396067 0.00373157
internal_weight=19968 10602.2 4906.97 9365.85 4840.64 3057.71 2219.62 2687.35 2492.08 565.626 1782.93 4525.21 5695.21 1991.54 681.294 339.271 459.323 1760.29 419.671 2267.68 548.599 2266.02 760.705 1443.65 889.386 1654.33 304.07 1310.25 134.954 517.287
internal_count=80000 42477 19656 37523 19389 12248 8893 10763 9982 2266 7141 18134 22821 7978 2729 1359 1840 7053 1680 9083 2196 9077 3047 5782 3562 6629 1218 5249 540 2071
is_linear=0
shrinkage=0.05


Tree=2
num_leaves=31
num_cat=0
split_feature=17 13 16 15 6 7 19 6 8 7 8 9 7 17 8 18 8 5 19 19 8 14 6 11 19 12 8 19 10 8
split_gain=10855.4 6608.12 4540.16 3876.46 1709.06 1568.58 1458.42 900.263 1240.11 690.531 671.663 637.026 604.84 531.05 540.715 522.977 515.36 479.851 476.167 370.147 649.176 349.996 339.159 512.888 312.165 457.247 265.443 307.53 253.05 284.213
threshold=-0.12854952481904994 0.89632008116358963 1.9602257815577755 -0.37960933051748519 -0.45737778675277752 0.097125003643249483 2.2671305826327712 0.21191973981889692 -1.5311534875606607 2.7982810419208843 -0.13911100954928049 0.85330694158246534 3.312378912289065 0.70883248167572943 0.29672559640442514 1.1481127175842698 -0.57630601640602774 1.2049034997638148 -0.12094107219149351 0.80585442229578264 -0.97050432301073719 0.037764555953134223 0.64143712865930025 1.1028434623066155 -0.2004150940201038 -0.23453009983215009 -0.27512328573869699 0.69761182618124928 1.9178151368701333 -1.751751362649032
decision_type=2 2 2 2 2 2 2 2 2 2 2 2 2 2 2 2 2 2 2 2 2 2 2 2 2 2 2 2 2 2
left_child=3 13 4 5 9 6 11 8 24 -3 -8 19 26 14 -2 -10 18 -6 -4 -1 -21 -16 -18 -24 25 -7 27 -5 -14 -30
right_child=1 2 16 12 17 7 10 -9 15 -11 -12 -13 28 -15 21 -17 22 -19 -20 20 -22 -23 23 -25 -26 -27 -28 -29 29 -31
leaf_value=0.072822350122294058 -0.061850048568905074 0.056093967291962414 0.05461045515874207 0.071244949933180202 -0.076339345218782995 0.062781751660380344 -0.074389535615681429 -0.067385292508903946 0.070319869949507563 -0.033679116949512276 0.060324954864348239 -0.034840051066952572 -0.071214989015996308 -0.081665554797346107 -0.070506147339298858 -0.01359218937382985 0.078761361244049116 0.023123195674102363 -0.030890700613251498 -0.059206521639731606 0.064117052444023423 0.049522941434492422 0.071059842442125806 -0.069434806954961431 -0.085119364083462781 -0.072000026764504899 0.086590784942526117 0.012852008409714136 -0.040698674913450132 0.082379185076658562
leaf_weight=1480.1132859587669 1143.5393858850002 496.0107808560133 378.68442983925343 1207.1688629984856 1575.3676860630512 113.07566884160042 387.18076711893082 756.8813199698925 523.18533469736576 377.02733510732651 121.58016455173492 192.46233600378036 83.998783349990845 4088.8279291242361 85.9667007625103 287.84118843078613 1509.7527321279049 131.37527294456959 285.68480531871319 161.86512567102909 313.17561550438404 206.91412933170795 174.10173787176609 103.62226404249668 346.40765652060509 141.88238985836506 2740.3795042186975 277.2683179974556 78.748859390616417 115.99831986427307
leaf_count=5952 4600 1992 1520 4860 6344 453 1559 3042 2101 1510 488 772 336 16473 345 1152 6076 526 1145 648 1258 830 700 416 1394 570 11047 1112 315 464
internal_value=-3.07085e-07 -0.0347277 0.00672596 0.039297 -0.0395768 0.00816083 0.0339216 -0.0233844 0.000195049 0.0173249 -0.0421964 0.0519536 0.07266 -0.0724779 -0.046325 0.0405387 0.0554447 -0.0686833 0.0178442 0.0604974 0.0220958 0.0142919 0.0694201 0.0186395 -0.054214 -0.0122234 0.0773666 0.0603381 0.00132343 0.0326109
internal_weight=19886.1 10556.9 5031.63 9329.21 2579.78 4825.65 2656.38 2169.27 1412.39 873.038 508.761 2147.62 4503.56 5525.25 1436.42 811.027 2451.85 1706.74 664.369 1955.15 475.041 292.881 1787.48 277.724 601.366 254.958 4224.82 1484.44 278.746 194.747
internal_count=80000 42477 20229 37523 10372 19389 10677 8712 5670 3502 2047 8630 18134 22248 5775 3253 9857 6870 2665 7858 1906 1175 7192 1116 2417 1023 17019 5972 1115 779
is_linear=0
shrinkage=0.05


Tree=3
num_leaves=31
num_cat=0
split_feature=17 13 6 15 16 7 19 5 9 8 14 7 17 11 14 5 8 19 11 8 12 8 17 13 18 6 8 5 10 8
split_gain=9868.8 6027.36 4167.8 3518.77 1409.6 1370.33 1398.51 828.929 828.338 641.069 640.853 597.868 510.877 516.748 737.575 440.865 423.435 631.508 421.12 396.263 344.778 346.164 325.046 542.294 310.714 285.849 352.311 285.072 270.369 282.706
threshold=-0.1508873615047627 0.87799927681233247 -0.42118005518388263 -0.46287747938794616 3.0540302645488744 0.70276865857734105 2.2671305826327712 -1.7981225190430599 1.2807592923405309 -0.33505420763740035 3.0670190734119074 3.1968290590003487 0.70883248167572943 -0.43276130297028637 0.10424815294366443 1.6518177518660635 -1.5311534875606607 -1.2928256492882924 1.1688449302333654 -1.7772329429716722 2.8256238111781742 0.57487291759933146 -1.2745235563523949 -0.16677231383705302 -0.91912706631811492 0.42981539343334046 -2.0415277370597171 1.7189639428970882 1.6467106659234239 -1.6527153833071588
decision_type=2 2 2 2 2 2 2 2 2 2 2 2 2 2 2 2 2 2 2 2 2 2 2 2 2 2 2 2 2 2
left_child=3 12 7 5 15 6 8 24 22 -8 25 -5 13 14 -2 20 17 -9 -6 -12 -4 -22 -1 -24 -3 26 -7 -16 -13 -30
right_child=1 2 4 11 18 10 9 16 -10 -11 19 28 -14 -15 27 -17 -18 -19 -20 -21 21 -23 23 -25 -26 -27 -28 -29 29 -31
leaf_value=0.067506293284974914 -0.058609358018097947 0.060868819576168458 -0.075603801698911566 0.073960706682069846 0.070084324594310188 -0.063187659695527393 -0.075734520877532643 0.067680129759783353 -0.048545698210182522 0.050326187131292534 -0.08001097652553428 -0.072221011508166205 -0.078466739144493855 -0.064315745467165619 0.093261325441950343 0.029929676697897235 0.071124815362323554 -0.042636267647574451 -0.023110646167157519 0.061663877265459292 -0.076248252693210311 0.064207495141735516 -0.034180923623649877 0.057590328482466861 -0.048894659686699871 -0.071989119905035481 0.0018443219201632302 -0.061920735965981605 -0.03719327885099568 0.077750322408200873
leaf_weight=1445.6514802873135 251.35062991082668 84.860709249973297 1579.7497360855341 4249.4123527556658 299.86130598187447 357.23977260291576 407.3931527286768 302.05301322042942 217.32852903008461 134.03264681994915 60.780794382095337 87.832930848002434 4028.7953995168209 993.12220886349678 179.05775201320648 122.42165978252888 1813.4820127189159 227.39328415691853 203.46568724513054 262.5718192756176 82.810740992426872 93.281987845897675 244.16380123794079 472.47921599447727 268.37900887429714 530.15462690591812 499.40423165261745 35.45437453687191 89.648214682936668 132.64402207732201
leaf_count=5847 1016 342 6408 17257 1215 1446 1653 1217 874 540 247 352 16369 4014 720 491 7341 912 818 1060 334 375 981 1908 1077 2146 2006 143 359 532
internal_value=-1.85212e-07 -0.0329596 0.00630041 0.0378894 -0.0418974 0.00719186 0.0280024 0.0488747 0.0445048 -0.0445276 -0.0283539 0.0690695 -0.0692862 -0.0439354 -0.000488764 -0.0618102 0.0596396 0.0203 0.032411 0.0350332 -0.0682065 -0.00184432 0.0538572 0.0263234 -0.0225256 -0.0431335 -0.0252755 0.067613 0.00204892 0.0313947
internal_weight=19756.3 10565.5 5077.76 9190.74 2381.59 4631.2 2921.05 2696.17 2379.62 541.426 1710.15 4559.54 5487.78 1458.98 465.863 1878.26 2342.93 529.446 503.327 323.353 1755.84 176.093 2162.29 716.643 353.24 1386.8 856.644 214.512 310.125 222.292
internal_count=80000 42792 20530 37208 9641 18708 11803 10889 9610 2193 6905 18500 22262 5893 1879 7608 9470 2129 2033 1307 7117 709 8736 2889 1419 5598 3452 863 1243 891
is_linear=0
shrinkage=0.05


Tree=4
num_leaves=31
num_cat=0
split_feature=17 13 16 15 7 7 19 8 19 8 6 8 6 11 14 17 6 11 9 7 6 5 18 5 15 6 15 6 12 12
split_gain=9000.37 5905.67 4400.64 2854.93 1425.34 1198.31 1136.79 807.227 743.678 608.876 888.307 604.088 559.922 546.146 583.04 993.793 518.419 576.255 483.582 450.786 423.678 407.636 372.555 279.318 261.344 245.76 245.309 227.471 225.769 223.317
threshold=-0.39358690571197524 0.56649066573707618 1.1454324855588371 -0.52719140427902444 1.3202492514135848 0.031455055581434764 2.0070172594543494 -0.82412865871494601 -0.59413782820018401 -2.0415277370597171 0.043481834903779111 -0.45117683214592469 0.47628331076218627 -0.47122693813823563 0.43824701333448274 1.2693702521014179 0.64143712865930025 0.88719240234224095 0.73520469356663887 2.3467569349085431 -0.89955693635424427 2.1097516456613445 1.393238456034094 -1.109919828674611 1.3382476470389992 -0.020381339279315954 1.1101740798007746 -1.9679416305681181 0.063192617767721795 3.5698100491405063
decision_type=2 2 2 2 2 2 2 2 2 2 2 2 2 2 2 2 2 2 2 2 2 2 2 2 2 2 2 2 2 2
left_child=3 13 4 5 12 6 18 8 -4 -7 22 -8 -3 14 -2 21 -9 26 -1 -5 -6 -16 -11 -17 25 -21 -18 -10 -24 -22
right_child=1 2 7 19 20 9 11 16 27 10 -12 -13 -14 -15 15 23 17 -19 -20 24 29 -23 28 -25 -26 -27 -28 -29 -30 -31
leaf_value=0.060723659100652472 -0.070529491137136191 0.056161998673671512 0.05399207227631251 0.074104941435681318 -0.015611656477646214 -0.0640208900920297 -0.070291168599761686 0.068673630750528611 0.003287362238722872 0.059437377513267664 -0.052025622022803843 0.050202049207019643 -0.046794761966378384 -0.078023405454597294 0.088383359031080522 0.039315397036473257 -0.081373850386846622 -0.060180632582327254 -0.031891365841705134 0.032599362586829238 -0.075689271999239638 -0.074934614121338394 0.035759404497676721 -0.079733555673525608 0.067518680170583906 -0.062681369116088889 0.076506356202060144 -0.067331015843206929 -0.062736275301374031 0.0086834711781388751
leaf_weight=1607.7997685074806 809.24759003520012 434.12723667919636 380.79832690954208 3765.923730045557 416.58973096311092 562.48478858172894 340.44626025855541 2025.1245611310005 187.56132073700428 485.93648138642311 504.96225215494633 149.78467068076134 189.78674826025963 3761.447836920619 242.21087725460529 58.42451374232769 27.823962703347206 179.43057867884636 154.48711763322353 153.9876808822155 1666.8357693254948 45.362857431173325 107.92288565635681 314.46774671971798 185.65190386772156 120.74311624467373 212.57054695487022 290.88330805301666 126.22540754079819 82.297591462731361
leaf_count=6549 3313 1763 1542 15450 1681 2294 1393 8272 756 1969 2052 607 774 15423 981 239 113 729 623 624 6820 185 433 1292 755 488 867 1175 506 332
internal_value=-8.01911e-07 -0.0289546 0.0044987 0.0396662 -0.0417438 0.00961255 0.0338705 0.04354 0.00185187 -0.0209555 -0.00118186 -0.0334758 0.0248439 -0.0679247 -0.0420792 -0.00721988 0.0581907 0.00762367 0.0526048 0.0683954 -0.0609268 0.062621 0.0344725 -0.061081 0.0216918 -0.00927615 0.0582328 -0.039647 -0.017338 -0.0717195
internal_weight=19591.3 11325 6093.83 8266.36 2789.64 4040.05 2252.52 3304.19 859.243 1787.53 1225.05 490.231 623.914 5231.16 1469.71 660.466 2444.95 419.825 1762.29 4226.31 2165.72 287.574 720.085 372.892 460.383 274.731 240.395 478.445 234.148 1749.13
internal_count=80000 46257 24824 33743 11370 16426 9172 13454 3473 7254 4960 2000 2537 21433 6010 2697 9981 1709 7172 17317 8833 1166 2908 1531 1867 1112 980 1931 939 7152
is_linear=0
shrinkage=0.05


Tree=5
num_leaves=31
num_cat=0
split_feature=17 13 16 15 6 7 7 19 8 11 17 14 19 8 16 5 7 5 5 13 9 19 6 11 15 12 16 19 8 5
split_gain=8221.86 5750.72 4360.49 2280.71 1758.38 1001.35 963.681 1003.5 717.704 612.491 647.268 944.527 596.301 478.199 664.621 470.867 445.137 442.048 431.483 406.329 368.124 297.925 276.321 452.522 259.088 204.57 199.199 266.318 195.958 185.272
threshold=-0.6135058102944333 0.48942980109586848 2.0056769270498296 -0.8099602934136213 -0.063134594299786115 2.1807069783342752 -0.19937120085923313 2.0070172594543494 -1.0785664389753398 -0.47122693813823563 0.81902627507934855 -0.35757983139565441 -0.13999540358176685 -2.0415277370597171 -1.3037715403703807 1.9351280707183758 2.1807069783342752 1.351335283786262 1.8606098852451385 2.8036830238393713 1.3650411839957075 2.2671305826327712 0.64143712865930025 0.90707188664468219 0.97132526879372694 3.9262190218333526 -1.1320125504139404 -1.3412533024844986 -1.0128972460804024 -0.75573341592084209
decision_type=2 2 2 2 2 2 2 2 2 2 2 2 2 2 2 2 2 2 2 2 2 2 2 2 2 2 2 2 2 2
left_child=3 9 4 6 5 -3 7 20 12 10 11 -2 -4 -8 -15 21 -5 -9 -13 -16 -1 25 -10 -24 -18 -6 -7 -28 -29 -12
right_child=1 2 8 16 15 26 13 17 22 -11 29 18 -14 14 19 -17 24 -19 -20 -21 -22 -23 23 -25 -26 -27 27 28 -30 -31
leaf_value=0.061605642099541391 -0.060210139871906626 0.050446187863449614 0.046800695083659694 0.071631089351225918 -0.075789353736621226 -0.062148565764440236 -0.061697545009025218 0.062608582302445301 0.066998494767382344 -0.075016821855956567 -0.023252217779814809 0.086606155261444995 -0.051132164654242113 -0.056581637652701716 0.044593577472498681 0.036854856063105103 -0.013968630300652197 -0.065560607499504625 -0.062632088150693918 -0.063796506742640577 -0.044796021822810443 0.026559141684355664 0.062963885677533901 -0.05131025088294984 0.061461539477850984 0.026748849875234543 0.041133166074903728 -0.078548095791841147 0.0069350592439025279 -0.078061381856469936
leaf_weight=1292.745037227869 326.69707214832306 726.37989211082458 326.5503980666399 3704.0503460466862 1788.4287116527557 316.01233358681202 464.25935746729374 86.998572126030922 2146.670281291008 3803.4646508544683 199.40118801593781 269.85912582278252 296.62617422640324 349.2526795566082 576.03528194129467 111.29960407316685 256.28958542644978 296.70737564563751 59.027222022414207 101.73535656929016 86.744808107614517 78.343572676181793 231.57093550264835 138.4157262891531 204.81781066954136 50.001803189516068 160.53626216948032 149.19347083568573 121.75039766728878 679.95027479529381
leaf_count=5312 1341 2965 1327 15376 7403 1285 1910 356 8857 15793 822 1101 1201 1423 2345 450 1042 1225 242 413 351 321 955 564 840 202 648 606 493 2831
internal_value=-1.70451e-06 -0.025618 0.00543925 0.0413598 -0.0329221 0.00863863 0.00999892 0.0350211 0.0482248 -0.0642579 -0.0375979 6.08125e-06 0.000185577 -0.0195857 -0.00054933 -0.0631258 0.0658639 -0.0365005 0.0598215 0.0283239 0.0549149 -0.0689312 0.0601203 0.0202128 0.0195365 -0.0730005 -0.0319881 -0.00989884 -0.0401357 -0.0656329
internal_weight=19399.8 11980.2 6641.78 7419.64 3501.95 1473.87 3254.48 1763.2 3139.83 5338.4 1534.93 655.583 623.177 1491.28 1027.02 2028.07 4165.16 383.706 328.886 677.771 1379.49 1916.77 2516.66 369.987 461.107 1838.43 747.492 431.48 270.944 879.351
internal_count=80000 49407 27277 30593 14373 5997 13335 7244 12904 22130 6337 2684 2528 6091 4181 8376 17258 1581 1343 2758 5663 7926 10376 1519 1882 7605 3032 1747 1099 3653
is_linear=0
shrinkage=0.05


Tree=6
num_leaves=31
num_cat=0
split_feature=17 13 6 15 7 19 16 5 6 18 8 6 8 12 13 11 14 7 18 11 6 5 19 8 19 5 17 11 8 19
split_gain=7547.17 4576.39 3130.96 2933.22 1205.5 1125.86 922.919 704.023 643.42 651.28 624.775 604.34 818.167 437.276 436.905 441.644 571.853 436.142 341.806 320.922 303.599 281.379 269.952 269.557 403.334 247.336 237.275 226.251 218.537 553.613
threshold=-0.043410801116398105 0.97387638642576746 -0.32412576600423582 -0.21836427826444002 0.70276865857734105 2.2671305826327712 3.1060270547407041 -1.6022631287910418 0.36190962739358767 1.2916979914613786 -0.019258540404003596 -0.45737778675277752 -1.6767381949402473 -0.12514142586549329 -0.20723982477335098 -0.037856054019719469 1.1969857794442544 3.312378912289065 1.1033328906717361 0.88719240234224095 -2.456813064538677 1.8120053293465943 1.9150275783380273 -0.84411458057953659 -0.8896291152712793 1.7657465718937073 2.1272447759596647 3.4295179660946027 -1.0128972460804024 0.18213593630474875
decision_type=2 2 2 2 2 2 2 2 2 2 2 2 2 2 2 2 2 2 2 2 2 2 2 2 2 2 2 2 2 2
left_child=3 14 7 4 5 8 21 20 28 -10 -7 12 -6 -11 -2 16 -16 -5 -14 -8 -3 22 -4 24 -9 -17 -18 -13 29 -1
right_child=1 2 6 17 11 10 19 23 9 13 -12 27 18 -15 15 25 26 -19 -20 -21 -22 -23 -24 -25 -26 -27 -28 -29 -30 -31
leaf_value=0.058617255980770312 -0.072773658575153097 0.046455375201526358 -0.067571394278464925 0.067591256196309041 -0.051174244816773296 -0.06487857353858982 0.065353234760868545 0.060414078545807104 -0.047985373697124654 0.073017119715206552 0.058136455061619657 -0.063995521374262246 0.068833321682070917 -0.064293703996628052 -0.05152500449262979 -0.068521353086075931 0.070823328274817507 0.0022067202273528051 -0.013108377092579136 -0.023205018438465716 -0.046416374679129235 0.031773050528847886 0.0087938909747490388 0.068163183401502611 -0.014999087928882861 0.00097785604567107351 -0.033969065456778504 0.0030405818073367952 0.069813517231452779 -0.037151886776348994
leaf_weight=628.19493541121483 3429.5207294374704 129.03684732317924 1429.8028524518013 3912.2113529741764 407.79423844814301 454.41845212876797 235.14226850867271 451.10200436413288 361.50220748782158 298.52608974277973 133.5506062656641 784.80030259490013 381.53220085799694 71.956868663430214 350.19304242730141 1074.1923840045929 210.97812154889107 272.83188642561436 190.96411234140396 181.08394128084183 276.68964265286922 85.501832783222198 125.91874171793461 1371.808006554842 292.11268916726112 145.33757294714451 72.607072740793228 149.91029870510101 1073.4622371196747 198.61149668693542
leaf_count=2605 14493 528 5998 16472 1689 1899 985 1850 1478 1240 549 3241 1570 294 1453 4505 861 1105 769 737 1123 345 517 5744 1181 596 301 615 4448 809
internal_value=-2.90526e-06 -0.0304942 0.00609525 0.0322575 0.0069355 0.0256171 -0.0396727 0.0434513 0.0395899 -0.000240001 -0.0369371 -0.0244791 0.00294845 0.046348 -0.0622034 -0.0426432 -0.00878528 0.0633287 0.0415005 0.026825 -0.0168795 -0.056537 -0.0613905 0.0550246 0.0307737 -0.0602388 0.0439931 -0.0532442 0.0549325 0.035612
internal_weight=19181.3 9861.03 4578.2 9320.27 5135.22 3220.22 2057.45 2520.75 2632.25 731.985 587.969 1915 980.291 370.483 5282.83 1853.31 633.778 4185.04 572.496 416.226 405.726 1641.22 1555.72 2115.02 743.215 1219.53 283.585 934.711 1900.27 826.806
internal_count=80000 41217 19008 38783 21206 13322 8582 10426 10874 3012 2448 7884 4028 1534 22209 7716 2615 17577 2339 1722 1651 6860 6515 8775 3031 5101 1162 3856 7862 3414
is_linear=0
shrinkage=0.05


Tree=7
num_leaves=31
num_cat=0
split_feature=17 13 16 15 7 8 19 19 12 18 8 6 11 5 19 6 11 7 19 8 6 9 12 14 16 6 11 8 10 13
split_gain=6935.62 4953.84 3865.26 1892.31 1296.21 926.055 847.29 823.227 1205.85 627.819 605.71 588.013 488.893 513.854 944.38 487.488 576.022 371.905 348.745 493.256 276.629 241.911 223.498 231.794 220.093 215.888 253.524 213.856 214.643 206.783
threshold=-0.6835261508329169 0.27714258255469748 0.83121456077240541 -0.8099602934136213 1.3202492514135848 -0.82412865871494601 -0.51052387613698469 1.9752648126196231 -0.041725293802683076 -0.33671039254215412 -0.6774518335538473 0.52040997037155123 -0.73289094580318725 -0.062839231177031926 0.24259230124213552 0.64143712865930025 0.41545493162157338 2.1807069783342752 0.80585442229578264 -1.4838364011482856 -1.1133051972132433 0.32824877140747499 3.5698100491405063 0.8478496277288744 -1.4630856450158907 -1.3769986279509563 1.0810368059315547 -1.142191794706725 0.18010232942588858 1.6909673660520756
decision_type=2 2 2 2 2 2 2 2 2 2 2 2 2 2 2 2 2 2 2 2 2 2 2 2 2 2 2 2 2 2
left_child=3 12 4 7 11 6 -4 8 18 -10 -9 -3 13 14 -2 -7 -17 -5 21 -20 -6 -1 -22 -24 -11 26 -8 -19 -29 -26
right_child=1 2 5 17 20 15 25 10 9 24 -12 -13 -14 -15 -16 16 -18 27 19 -21 22 -23 23 -25 29 -27 -28 28 -30 -31
leaf_value=0.064535536493232279 -0.067170858829088007 0.046931311491647983 0.046344766307327583 0.067728755528853865 -0.018301591734907478 0.060553778115908743 0.043768825396755751 -0.072061376686512094 0.051137922052293311 -0.07576215595840069 0.041200599277550168 -0.04666718405064605 -0.071080859781247979 -0.059316267051295279 0.080987921724467837 0.059938827439235634 -0.046594484186485929 -0.023302445163740127 -0.079176460070246632 0.049733335568885984 -0.068944780757027299 -0.01449185510946268 -0.083420396156438092 0.07345026844717821 0.023910865917612878 -0.071471314281799259 -0.048276796263093828 -0.046087409699546542 0.073080079678444251 -0.066735762675348226
leaf_weight=1246.4641071408987 208.01574790477753 530.83223748207092 490.95491491258144 3513.9283278435469 379.07802298665047 2364.2767525017262 122.39368841052055 445.84869000315666 197.51679560542107 370.05985967814922 160.54842460155487 245.35758744180202 3682.8256307989359 736.49723239243031 222.70662844181061 253.17500923573971 254.36504903435707 180.13143369555473 121.12100483477116 191.58000546693802 1831.4896410107613 104.99355483055115 40.034007832407951 57.184857666492462 144.83218833804131 305.91673365235329 192.41725639998913 47.305940926074982 187.78575848042965 111.23421993851662
leaf_count=5217 882 2200 2027 15030 1550 9987 498 1887 822 1534 663 1027 15771 3139 922 1065 1059 736 498 796 7779 433 165 231 598 1262 788 195 783 456
internal_value=-2.85488e-06 -0.0232298 0.00347497 0.0394096 -0.0385497 0.0360099 -0.0027376 0.0101634 0.0228963 -0.0265845 -0.0420744 0.0173443 -0.0621439 -0.0339459 0.0094352 0.0510091 0.00654728 0.0624409 0.0473859 -0.000198335 -0.0573488 0.058396 -0.0650233 0.00885209 -0.0511027 -0.0415585 -0.0124909 0.0176909 0.0491008 -0.0154657
internal_weight=18940.9 11917.5 7067.48 7023.35 3083.98 3983.5 1111.68 3094.2 2487.8 823.643 606.397 776.19 4850.05 1167.22 430.722 2871.82 507.54 3929.15 1664.16 312.701 2307.79 1351.46 1928.71 97.2189 626.126 620.728 314.811 415.223 235.092 256.066
internal_count=80000 50352 29638 29648 12952 16686 4575 12904 10354 3410 2550 3227 20714 4943 1804 12111 2124 16744 6944 1294 9725 5650 8175 396 2588 2548 1286 1714 978 1054
is_linear=0
shrinkage=0.05


Tree=8
num_leaves=31
num_cat=0
split_feature=17 13 6 15 6 8 19 12 16 14 5 13 17 8 7 12 12 8 8 5 12 6 14 13 13 17 8 17 6 14
split_gain=6376.83 3910.88 2671.4 2524.67 1115.57 1369.49 1745.72 1205.61 822.53 670.316 563.183 424.579 405.409 405.181 365.391 353.82 342.141 334.444 293.4 277.329 293.005 269.465 265.333 219.552 214.785 190.156 185.125 220.617 268.087 180.867
threshold=-0.043410801116398105 0.97387638642576746 -0.42118005518388263 -0.13513838996028507 0.71433151761264047 -1.2068341221614307 1.0000000180025095e-35 -0.060234879405572032 3.1060270547407041 -5.369450048190135 -1.2671795651590463 2.9149595136993374 1.0050021887627838 0.37459115330084802 3.3551080371566684 -0.060234879405572032 1.0280309428695611 -0.76110396555339788 0.37459115330084802 1.2049034997638148 2.7757792672720725 -0.68634648917182306 1.5615352531706861 -0.42613274990597277 1.6909673660520756 2.0308069984350592 0.25782522846832162 -1.5461455605758625 0.95485818193230876 1.0705409614187424
decision_type=2 2 2 2 2 2 2 2 2 2 2 2 2 2 2 2 2 2 2 2 2 2 2 2 2 2 2 2 2 2
left_child=3 12 10 4 5 6 7 -1 19 15 17 21 13 23 26 -6 -15 -3 -10 20 -4 -7 -22 -2 25 -12 27 -5 -29 -16
right_child=1 2 8 14 9 11 -8 -9 18 -11 24 -13 -14 16 29 -17 -18 -19 -20 -21 22 -23 -24 -25 -26 -27 -28 28 -30 -31
leaf_value=0.067583062026735044 -0.068392074332881941 -0.050610660346502148 -0.06597776208371918 0.067880662903648609 0.069605819723763604 0.063195724876765308 -0.065492602261822866 -0.057901074261658816 -0.038404751216791863 -0.056899104310807129 0.035647383398476389 -0.043999630015662983 -0.068380353828495097 -0.042101094360494258 -0.048554964946530055 -0.072049283823510987 0.057962079291214809 0.032256302860316034 0.051582887620736095 0.014692906056867251 -0.070015832447456336 0.024575740292874376 0.058868746237036397 -0.028496246590034486 0.06312282388896602 -0.064159221150983672 0.073737954987418822 0.042038491479340745 -0.050457261471535154 0.037199240023443332
leaf_weight=696.39909309148788 774.1850890815258 226.49106249213219 1337.8503857553005 864.13504953682423 188.00787006318569 1431.8616623878479 843.40998111665249 263.96624191105366 128.09127125144005 891.47419188916683 374.08797314763069 124.58284771442413 3380.4359555393457 163.82057926058769 103.85879990458488 57.582956552505493 178.52021819353104 263.31243948638439 309.31218284368515 142.70817166566849 68.763254180550575 659.79289489984512 95.243145331740379 621.81770171225071 1473.5174535512924 54.701724633574486 2127.1636908501387 600.89581790566444 90.081769019365311 150.71688349545002
leaf_count=2942 3375 926 5791 3750 804 6055 3579 1102 527 3743 1575 513 14772 696 421 241 740 1094 1318 581 292 2753 389 2626 6286 229 9320 2566 378 616
internal_value=-4.23164e-06 -0.0284427 0.0057052 0.0299945 0.00697646 0.0193444 -0.013004 0.0330925 -0.0357082 -0.0367494 0.0417493 0.0456724 -0.0582898 -0.0386674 0.060147 0.0363924 0.0100788 -0.00606238 0.0252305 -0.051916 -0.0582453 0.0510134 0.00483108 -0.0506214 0.0540597 0.0229148 0.0641522 0.0510404 0.02998 0.00221425
internal_weight=18686.8 9592.86 4474.08 9093.93 5157.08 4020.01 1803.78 960.365 2081.97 1137.07 2392.11 2216.24 5118.78 1738.34 3936.85 245.591 342.341 489.804 437.403 1644.56 1501.86 2091.65 164.006 1396 1902.31 428.79 3682.28 1555.11 690.978 254.576
internal_count=80000 41217 19008 38783 21732 16944 7623 4044 8898 4788 10110 9321 22209 7437 17051 1045 1436 2020 1845 7053 6472 8808 681 6001 8090 1804 16014 6694 2944 1037
is_linear=0
shrinkage=0.05


Tree=9
num_leaves=31
num_cat=0
split_feature=17 13 16 15 7 7 19 8 6 19 11 17 14 6 5 8 6 5 12 7 14 9 18 12 5 15 11 19 6 11
split_gain=5874.42 4260.86 3296.57 1625.6 1440.2 772.719 718.722 671.89 653.43 570.77 449.735 501.824 743.781 416.391 397.523 388.617 506.692 365.795 300.62 294.556 266.816 259.521 227.763 216.352 201.87 201.826 198.486 185.904 184.856 344.751
threshold=-0.6835261508329169 0.27714258255469748 2.0056769270498296 -0.6521254282000557 1.6066245045118364 -0.19937120085923313 1.9460328354512355 -0.57630601640602774 0.38553010740235566 0.24259230124213552 -0.43276130297028637 0.81902627507934855 -0.39281161494229899 -0.97815483775113066 2.0316365860318935 -2.4903992488598621 0.043481834903779111 1.5880573714524033 3.3090172106311599 2.0484201936995228 0.8478496277288744 1.3650411839957075 1.0803760517519798 -0.27575127523257653 2.5634090923893722 1.4356945724134484 2.2425798175710407 1.6270718956961006 0.64143712865930025 0.90707188664468219
decision_type=2 2 2 2 2 2 2 2 2 2 2 2 2 2 2 2 2 2 2 2 2 2 2 2 2 2 2 2 2 2
left_child=3 10 4 5 8 6 21 9 -3 -4 11 12 -2 -6 -8 -7 22 -14 -15 -5 -20 -1 -17 -24 27 -21 -18 -10 -9 -30
right_child=1 2 7 19 13 15 14 28 24 -11 -12 -13 17 18 -16 16 26 -19 20 25 -22 -23 23 -25 -26 -27 -28 -29 29 -31
leaf_value=0.055716548760738296 -0.055769016896130688 0.044486246902392806 0.038203509136039399 0.06494160130577252 -0.010290084211078158 -0.061377541004716631 0.040691121606319602 0.061493768027936574 -0.062890566678886595 -0.040338028730443981 -0.068583184107120873 -0.060745625692993001 0.082833068825224926 -0.065189314423570052 -0.064784600995662772 0.050845711429338393 -0.066434578922140677 -0.055257303063232469 -0.077605146842048403 -0.006467607674104015 0.060995447706840955 -0.035505179540064519 0.044961560906919301 -0.047443049337950953 0.066216068946596984 0.065159101347933956 0.0049955115422909294 0.060600880537449844 0.058473594317198535 -0.045301006732387863
leaf_weight=1286.4342699944973 301.68865658342838 765.25219272077084 550.20347312092781 3198.3002263903618 536.20797511935234 357.73350881040096 139.40685003995895 1900.762127161026 291.32737410068512 399.10409931838512 3285.5375843942165 798.29675322771072 240.89531271159649 1888.6283121407032 248.68205420672894 390.2418320775032 294.18557158112526 59.876978471875191 55.682325139641762 262.30532968044281 92.250984370708466 82.998175650835037 107.57831783592701 154.05996972322464 42.237280637025833 157.34127274155617 145.28242853283882 34.036341533064842 227.74677556753159 123.39327573776245
leaf_count=5540 1290 3222 2304 14222 2213 1541 590 8291 1251 1656 14612 3544 1012 8273 1080 1648 1245 256 237 1088 376 343 440 629 173 679 603 142 986 514
internal_value=-4.2159e-06 -0.0216699 0.00329869 0.0368001 -0.0288074 0.0108793 0.0331664 0.0404638 0.0181673 0.00518339 -0.0584694 -0.0347472 -0.000297815 -0.0494915 -0.0268963 -0.0161517 -0.00132716 0.0553424 -0.0598129 0.0597738 0.00882597 0.0501878 0.0266459 -0.00944887 -0.0366221 0.0203879 -0.0428207 -0.0499721 0.0553365 0.0220064
internal_weight=18417.7 11593.1 6906.83 6824.55 3705.62 3206.6 1757.52 3201.21 1132.85 949.308 4686.3 1400.76 602.461 2572.77 388.089 1449.08 1091.35 300.772 2036.56 3617.95 147.933 1369.43 651.88 261.638 367.601 419.647 439.468 325.364 2251.9 351.14
internal_count=80000 50352 29638 29648 15887 13659 7553 13751 4788 3960 20714 6102 2558 11099 1670 6106 4565 1268 8886 15989 613 5883 2717 1069 1566 1767 1848 1393 9791 1500
is_linear=0
shrinkage=0.05


Tree=10
num_leaves=31
num_cat=0
split_feature=17 13 15 6 6 8 19 12 14 5 16 12 13 7 6 13 17 11 12 14 16 5 18 5 12 14 16 13 16 11
split_gain=5421.48 3204.2 2490.73 2088.83 1220.36 1530.2 1583.45 1069.61 791.841 641.337 483.655 368.569 325.57 324.79 317.79 316.242 301.855 249.291 224.322 210.983 203.86 228.115 198.94 409.301 345.871 197.327 194.841 188.181 187.855 249.497
threshold=0.20845237181740031 1.1289878302042189 0.10214168299269251 0.043481834903779111 0.36190962739358767 -1.099852213719285 0.021493250963060821 -0.041725293802683076 -5.5783509098475959 -1.2671795651590463 4.6181938692666789 -0.081821143921055536 3.2251258724263256 3.3551080371566684 -2.1708999309191435 -0.041415112709570094 1.4488309839191178 0.086678288837516451 2.7757792672720725 1.4395039670894703 -3.552683650281367 3.0409730925230432 -1.1291066262372156 0.94350801937764095 0.66505189588263669 1.0705409614187424 6.8358241367792685 2.0005242784466257 -2.4840429398533108 -0.037856054019719469
decision_type=2 2 2 2 2 2 2 2 2 2 2 2 2 2 2 2 2 2 2 2 2 2 2 2 2 2 2 2 2 2
left_child=2 15 4 9 5 6 7 -1 11 14 18 -6 20 -4 -3 -2 28 -8 -5 -20 -7 -22 -10 -24 -25 -15 -23 -11 -17 -30
right_child=1 3 13 10 8 12 17 -9 22 27 -12 -13 -14 25 -16 16 -18 -19 19 -21 21 26 23 24 -26 -27 -28 -29 29 -31
leaf_value=0.06216673274051996 -0.065732752690124754 0.042742071040750507 0.061597020146390458 -0.05947041837276329 0.068334903215097054 -0.012393404194121422 -0.0059397488668080445 -0.050052373024640454 -0.076360190169252801 0.025320357307443045 0.041401424992537565 -0.067474638375465523 -0.046982480192449702 -0.047667135418321654 -0.040260129664409755 -0.053182939412939237 -0.059530000366307748 -0.07218135309504467 -0.06956296558388847 0.053908603543723767 0.059396424210899759 -0.046387371594328798 -0.059668439204706686 0.045942097263128576 -0.059837118617531382 0.03860047713298162 0.057640225220954903 0.061100603057857063 0.04484690624357518 -0.0257190881960918
leaf_weight=735.89856396615505 3145.5630829185247 171.7586333155632 3466.6108021140099 1125.5294177383184 248.19354477524757 120.96038334071636 174.41005939245224 298.4589821845293 414.48282518982887 528.56704950332642 155.91724590957165 62.546879991889 88.629026740789413 107.14556694030762 350.9410035610199 236.12184086441994 820.47484749555588 765.0700793415308 56.253097981214523 89.876330584287643 1928.5509244054556 99.269244626164436 598.19186682999134 221.43126720190048 118.70413644611835 173.82963341474533 82.352627158164978 1205.7480654865503 198.48254773020744 339.54477687180042
leaf_count=3188 14393 723 15652 5027 1098 508 742 1268 1777 2262 676 269 369 444 1478 1033 3637 3349 246 376 8352 425 2590 933 508 725 366 5296 831 1459
internal_value=-5.45246e-06 -0.0293514 0.0254701 0.00562323 0.00537923 0.0194657 -0.0128936 0.0297864 -0.0309778 0.0355637 -0.041713 0.0409987 0.0469996 0.0574064 -0.0129857 -0.0565375 -0.038399 -0.0598839 -0.0519036 0.00637774 0.0507329 0.0543515 -0.0475108 -0.0347673 0.00902612 0.00570365 0.00078176 0.0501959 -0.0160035 0.000313267
internal_weight=18129.5 8424.78 9704.74 3684.59 5957.15 4293.6 1973.84 1034.36 1663.55 2257.01 1427.58 310.74 2319.76 3747.59 522.7 4740.19 1594.62 939.48 1271.66 146.129 2231.13 2110.17 1352.81 938.327 340.135 280.975 181.622 1734.32 774.149 538.027
internal_count=80000 37437 42563 16084 25742 18567 8547 4456 7175 9759 6325 1367 10020 16821 2201 21353 6960 4091 5649 622 9651 9143 5808 4031 1441 1169 791 7558 3323 2290
is_linear=0
shrinkage=0.05


Tree=11
num_leaves=31
num_cat=0
split_feature=17 13 16 15 7 8 7 19 19 11 14 17 6 11 9 5 8 6 7 5 6 5 6 8 9 15 18 12 6 15
split_gain=5016.37 3667.69 2766.63 1411.16 987.287 648.608 632.077 633.651 630.685 512.969 513.183 745.957 395.169 494.816 383.549 362.164 315.919 398.7 301.164 297.405 243.907 236.823 233.127 242.057 219.803 212.895 209.642 239.109 196.699 181.17
threshold=-0.6835261508329169 0.48942980109586848 0.83121456077240541 -0.8099602934136213 1.1945176316180077 -0.82412865871494601 -0.2939493852507819 1.8273897913317909 -0.80296942094117385 -0.47122693813823563 0.43824701333448274 1.2693702521014179 0.36190962739358767 0.52076997932287583 0.61540055851952746 1.351335283786262 -2.5934652242959113 0.043481834903779111 1.8265676230590293 2.3285200481350281 -0.5909642605049612 -1.109919828674611 -1.3769986279509563 -2.1812672711443502 0.65369229390086725 1.4356945724134484 0.55913478834412966 -0.27575127523257653 0.59304408473996573 0.94397966935918509
decision_type=2 2 2 2 2 2 2 2 2 2 2 2 2 2 2 2 2 2 2 2 2 2 2 2 2 2 2 2 2 2
left_child=3 9 4 6 14 8 7 24 -4 10 -2 19 -7 29 -3 -9 -8 26 -5 -12 -6 -13 23 -10 -1 28 -18 -28 -20 -14
right_child=1 2 5 18 20 12 16 15 22 -11 11 21 13 -15 -16 -17 17 -19 25 -21 -22 -23 -24 -25 -26 -27 27 -29 -30 -31
leaf_value=0.05473860452903731 -0.054528443982602204 0.045834401868746474 0.047827607772643707 0.061068482625456326 -0.020473444803021962 0.056364783212955107 -0.059466013852849546 0.059273328983208987 -0.065366489997341792 -0.063229631914735893 0.078458449959237342 0.049440196727873087 -0.065190472544038799 -0.039429295964022983 -0.04261754428897585 -0.054565853601026226 0.051378972125397507 -0.039858158269478958 0.020396898112778988 -0.065400446504435203 -0.060200380741135276 -0.066400085516238494 -0.065012751266303001 0.027682954282821221 -0.024477637208716634 0.062203425839812254 0.042354809563742067 -0.044470373945246923 -0.065371110187994741 0.067221729683305129
leaf_weight=1097.6193960905075 799.28247828781605 449.65976962447166 400.86929513514042 3152.194260686636 514.56644015014172 2069.664375141263 318.18941694498062 93.041880786418915 104.45662821829319 3461.4766286611557 277.43722470104694 52.602047950029373 28.633706346154213 271.68121314048767 168.4804625660181 280.47178344428539 315.48651665449142 430.71901813149452 222.00366854667664 41.270820587873459 1550.7128516584635 273.64893126487732 293.44206142425537 211.22298528254032 95.159731507301331 183.61679467558861 142.38336950540543 178.95899075269699 95.649951741099358 264.08101008832455
leaf_count=4878 3604 1925 1712 14578 2135 9273 1422 399 434 16010 1195 224 121 1167 734 1248 1367 1854 940 184 7064 1278 1244 872 398 826 598 740 400 1176
internal_value=-6.4569e-06 -0.0203387 0.00481788 0.0345701 -0.0337103 0.0331894 0.00886037 0.0306224 -0.000876783 -0.052786 -0.0277551 0.00542439 0.0462515 0.0091658 0.0217259 -0.0262086 -0.0157371 -0.00270344 0.0553438 0.0598296 -0.0503024 -0.0477229 -0.0329296 -0.00310659 0.0484187 0.0193449 0.0224262 -0.00599906 -0.00542905 0.054269
internal_weight=17838.7 11233.2 6327.47 6605.49 2683.42 3644.05 2952.03 1566.29 1009.99 4905.72 1444.24 644.959 2634.06 564.396 618.14 373.514 1385.74 1067.55 3653.46 318.708 2065.28 326.251 609.122 315.68 1192.78 501.27 636.829 321.342 317.654 292.715
internal_count=80000 50352 27857 29648 11858 15999 12904 6923 4262 22495 6485 2881 11737 2464 2659 1647 5981 4559 16744 1379 9199 1502 2550 1306 5276 2166 2705 1338 1340 1297
is_linear=0
shrinkage=0.05


Tree=12
num_leaves=31
num_cat=0
split_feature=17 13 15 6 6 8 19 12 14 16 6 13 5 9 13 19 11 7 17 6 12 18 11 17 5 14 6 6 7 8
split_gain=4654.75 2609.13 2370.65 1642.32 1359.99 1509.21 1729.41 1147.69 648.401 411.342 410.09 417.499 400.663 281.411 276.015 306.608 250.378 246.059 218.436 200.493 195.014 191.255 183.45 182.84 179.829 177.562 166.107 137.931 135.494 134.808
threshold=0.40266006995398707 1.347014035653227 0.47790333894446452 -0.32412576600423582 0.71433151761264047 -1.099852213719285 -0.01928727896125015 0.39837391946924028 -5.8110813189699018 4.6181938692666789 -0.78374309729897784 2.3220407711739153 -1.6398293247663347 0.77344416118450166 0.16155029136236873 2.1021766870262364 0.086678288837516451 4.0394819895170473 1.6085017286313217 -2.456813064538677 2.7757792672720725 1.4467406439798522 1.1464711418353761 -1.0436956588886641 1.7657465718937073 2.2372742423641752 -2.1988848097934728 0.71433151761264047 1.668345275547362 0.27787565720824142
decision_type=2 2 2 2 2 2 2 2 2 2 2 2 2 2 2 2 2 2 2 2 2 2 2 2 2 2 2 2 2 2
left_child=2 14 4 12 5 6 7 28 13 20 21 23 19 -6 -2 18 26 -4 27 -3 24 -7 -17 -12 -5 -22 -8 -16 -1 -25
right_child=1 3 17 9 8 10 16 -9 -10 -11 11 -13 -14 -15 15 22 -18 -19 -20 -21 25 -23 -24 29 -26 -27 -28 -29 -30 -31
leaf_value=0.062231428963007013 -0.062438867961217316 0.045568493238375821 0.060861145612493242 -0.058147622339161237 0.063985262317939565 0.061209546143219142 0.046355104916679615 -0.05732725571716292 -0.051889289629565565 0.038298968086862666 0.048295673805890005 -0.070571373742473284 0.050224678124679747 -0.069039011412855053 -0.00706714106211212 0.067394574819923808 -0.069251998666865849 -0.001196466178991104 -0.063606515523363494 -0.044547096432754264 -0.059465308233627182 0.015848177792816619 -0.07099431283145187 -0.021399847154464472 0.036294294511148593 0.058376367391703592 -0.043899292369748398 -0.055476536936762237 0.01346235273567647 0.037516592476574663
leaf_weight=810.52308987081051 3040.3253996968269 91.512193650007248 3052.7078956067562 970.96346627175808 196.29081064462662 1657.642666593194 82.733546361327171 305.21402825415134 1225.0231592059135 166.08422820270061 481.93378138542175 123.63156074285507 1393.7069361358881 49.855525091290474 445.24730238318443 104.38011592626572 900.14576649665833 168.55021944642067 664.00079557299614 189.60130739212036 53.383972004055977 270.25532883405685 31.076984763145447 238.0614313185215 53.164427876472473 79.676750674843788 132.82043166458607 219.7746224552393 172.78053052723408 163.96248805522919
leaf_count=3658 14583 391 14331 4499 904 7511 352 1333 5426 736 2133 526 6269 222 1921 440 4071 715 3029 793 239 1173 139 1024 219 339 580 1005 725 714
internal_value=-6.69282e-06 -0.0297951 0.0222717 0.00634747 0.00555619 0.0172838 -0.0120886 0.0273717 -0.0370099 -0.0352853 0.0413403 0.0154897 0.0392414 0.037042 -0.0538491 -0.0360165 -0.0576611 0.057614 -0.0433204 -0.0152113 -0.0458464 0.0548507 0.035645 0.0275264 -0.053245 0.0110983 -0.00925801 -0.0230653 0.053662 0.00262879
internal_weight=17535 7502.9 10032.1 2998.09 6810.87 5339.7 2404.22 1288.52 1471.17 1323.27 2935.49 1007.59 1674.82 246.146 4504.81 1464.48 1115.7 3221.26 1329.02 281.114 1157.19 1927.9 135.457 883.958 1024.13 133.061 215.554 665.022 983.304 402.024
internal_count=80000 34602 45398 13485 30352 23800 10719 5716 6552 6032 13081 4397 7453 1126 21117 6534 5003 15046 5955 1184 5296 8684 579 3871 4718 578 932 2926 4383 1738
is_linear=0
shrinkage=0.05


Tree=13
num_leaves=31
num_cat=0
split_feature=17 13 16 7 15 8 6 19 11 12 19 5 19 8 6 18 7 12 8 16 11 19 13 17 5 19 8 19 15 5
split_gain=4326.23 3384.02 2654 1325.37 1031.21 693.134 623.498 486.491 484.453 475.484 953.226 455.953 739.586 423.968 334.488 304.728 282.665 281.105 242.967 207.464 255.025 301.569 155.337 153.465 149.697 163.206 145.918 247.596 144.143 135.755
threshold=-0.99668225166821156 0.16155029136236873 2.058316298074248 1.668345275547362 -1.1858243411476941 -1.2989817372018719 0.59304408473996573 -0.55124787181751322 -0.73289094580318725 0.16109178122625381 1.245892942747594 -0.021079668646312163 0.081096195274339769 -0.63656401097203585 -0.97815483775113066 -0.27999680165566931 2.1807069783342752 3.3090172106311599 0.33643677564780949 5.5529498743242316 0.6210014032688963 0.49065668777017779 -0.68495701411486476 2.3063379738467145 2.5317041152229183 1.9150275783380273 -1.099852213719285 -1.9997972615802084 0.69163075659238549 1.4107891347786583
decision_type=2 2 2 2 2 2 2 2 2 2 2 2 2 2 2 2 2 2 2 2 2 2 2 2 2 2 2 2 2 2
left_child=4 8 3 6 9 7 23 -4 11 10 -1 12 -2 -12 26 -11 -6 -16 -19 20 29 -22 -13 -3 25 -8 27 -5 -18 -7
right_child=1 2 5 14 16 19 24 -9 -10 15 13 22 -14 -15 17 -17 28 18 -20 -21 21 -23 -24 -25 -26 -27 -28 -29 -30 -31
leaf_value=0.049325524611257249 -0.057672945938133185 0.043656519387063171 0.045208444413647499 0.026542884767855015 0.058457061532094949 0.061666326616626438 -0.059542913371789387 -0.046495024325853597 -0.061460492693351132 0.034515500562933843 -0.065070301418566401 -0.062428481245900481 0.075698756982391327 0.041086471152745982 -0.059757582477347221 -0.052798364017648848 -0.017934586889512948 -0.05882119421047001 0.067192574497861965 0.061252490257265292 0.034060185860581411 -0.036719980284800516 -0.0084349924598853317 -0.026366561079611123 0.048406806980612754 0.061013866474310487 0.021501712154987515 -0.061913607699775476 0.048610437295426086 0.00069593189957869745
leaf_weight=1066.9374879002571 184.1787898093462 880.36768686771393 231.99578250944614 121.77110426127911 3061.0107981711626 679.32284653186798 313.24268943071365 384.02290453016758 3284.9844887405634 132.38557524979115 343.09916177392006 510.26491440832615 238.60538835823536 129.57457573711872 1888.1337978839874 407.57554385066032 193.72772198915482 69.645728543400764 84.859622463583946 1298.4761053770781 482.3583117723465 218.72860251367092 180.26939198374748 85.87961620092392 44.82181179523468 30.836957365274429 214.7370567470789 225.80027411878109 140.31944161653519 105.47254972159863
leaf_count=4827 871 3859 1008 511 14723 3144 1427 1644 15896 591 1595 2435 1052 571 8867 1787 828 310 356 6088 2172 951 825 374 189 132 903 961 631 472
internal_value=-7.48792e-06 -0.0171012 0.00363341 -0.0241879 0.0367075 0.0360343 0.0159165 -0.011959 -0.0518001 0.00898044 0.0231392 -0.0232958 0.0175976 -0.0359694 -0.0450511 -0.0313911 0.0536911 -0.0544516 0.0103899 0.0466525 0.0338938 0.0119778 -0.0483331 0.0374329 -0.0375422 -0.0487384 -0.0109028 -0.030923 0.0100182 0.0534722
internal_weight=17233.4 11758.8 7360.47 3960.1 5474.63 3400.38 1355.15 616.019 4398.3 2079.57 1539.61 1113.32 422.784 472.674 2604.95 539.961 3395.06 2042.64 154.505 2784.36 1485.88 701.087 690.534 966.247 388.901 344.08 562.308 347.571 334.047 784.795
internal_count=80000 54447 33368 17889 25553 15479 5981 2652 21079 9371 6993 5183 1923 2166 11908 2378 16182 9533 666 12827 6739 3123 3260 4233 1748 1559 2375 1472 1459 3616
is_linear=0
shrinkage=0.05


Tree=14
num_leaves=31
num_cat=0
split_feature=17 13 15 6 6 8 19 12 14 5 13 11 16 6 13 19 11 6 9 7 5 17 12 13 6 14 7 5 8 14
split_gain=3994.22 2275.44 2075.59 1423.24 1197.83 1322.4 1578.43 1089.03 561.784 395.1 354.984 332.684 318.962 265.5 253.36 324.542 267.205 247.956 240.886 225.735 219.238 217.302 174.855 167.088 151.858 150.081 145.087 140.617 139.356 136.413
threshold=0.40266006995398707 1.347014035653227 0.47790333894446452 -0.16699561059652671 0.73926947641097085 -0.82412865871494601 0.18213593630474875 0.4980933985479945 -5.8110813189699018 -0.96809976300162992 3.2251258724263256 0.086678288837516451 4.7431350439749353 -2.0161537399911071 -0.20723982477335098 1.8842232027694612 0.56107858955369561 -0.572749891370123 0.77344416118450166 4.0394819895170473 2.2201907167747188 1.3427511303647595 2.7757792672720725 1.9016670933302329 -1.8765642976709738 2.1733499697162495 1.668345275547362 1.9351280707183758 -0.05894712339484736 1.5877322121484665
decision_type=2 2 2 2 2 2 2 2 2 2 2 2 2 2 2 2 2 2 2 2 2 2 2 2 2 2 2 2 2 2
left_child=2 14 4 9 5 6 7 26 18 13 17 20 22 -3 -2 21 -17 -7 -6 -4 -8 -16 27 -19 -12 -24 -1 -5 -15 -9
right_child=1 3 19 12 8 10 11 29 -10 -11 24 -13 -14 28 15 16 -18 23 -20 -21 -22 -23 25 -25 -26 -27 -28 -29 -30 -31
leaf_value=0.057253392093847236 -0.061522843861739368 0.039121028380008201 0.058031669808643965 -0.056835997030549923 0.060956727726468096 0.05581360969685855 0.038714097733533508 -0.061868946833553817 -0.049841731709557885 0.050282801614211427 0.045804637131956594 -0.066742181719699326 0.035465655406446112 -0.063911446271049402 -0.021746751326660946 0.064230950605352471 -0.053333962956776282 0.02981523420720333 -0.065810652873565648 -0.0017669212234204584 -0.054815873074220846 -0.059411011236640235 -0.057928093527818629 -0.044141908599846055 -0.08143456247395181 0.054566276464676135 0.011951963925481597 0.034321334659337746 0.010859330660497747 0.052343613551629635
leaf_weight=934.17660418152809 2500.5353170484304 206.8993169516325 2919.7202521413565 889.99556730687618 185.08898831903934 1757.3777769356966 143.82520900666714 317.54408945143223 1174.5087247639894 1232.5236441195011 33.043564304709435 900.14415761828423 139.02764938771725 168.76885850727558 630.82379877567291 133.31096214056015 75.819536104798317 602.15732093155384 46.988086432218552 166.83593060076237 111.01789624989033 974.60027068853378 48.688297122716904 87.463414967060089 80.766162037849426 75.817161828279495 217.98716315627098 44.416460484266281 98.79581406712532 28.489374950528145
leaf_count=4349 12687 914 14331 4308 888 8202 621 1421 5330 5735 148 4214 632 729 2852 568 354 2689 217 715 501 4656 226 377 346 330 927 184 427 122
internal_value=-8.92984e-06 -0.0281714 0.0209379 0.00603919 0.00515142 0.0161977 -0.0085406 0.0253206 -0.0357955 0.0353579 0.0418285 -0.0524638 -0.0357379 -0.00341289 -0.0512021 -0.0369796 0.0216082 0.0458432 0.0352904 0.0547994 -0.00203058 -0.0446115 -0.0450863 0.0204354 -0.0444919 0.010575 0.0486824 -0.0525029 -0.036303 -0.0524657
internal_weight=16927.2 7220.02 9707.13 2904.93 6620.58 5213.99 2653.18 1498.2 1406.59 1706.99 2560.81 1154.99 1197.95 474.464 4315.09 1814.55 209.13 2447 232.077 3086.56 254.843 1605.42 1058.92 689.621 113.81 124.505 1152.16 934.412 267.565 346.033
internal_count=80000 34602 45398 13485 30352 23917 12155 6819 6435 7805 11762 5336 5680 2070 21117 8430 922 11268 1105 15046 1122 7508 5048 3066 494 556 5276 4492 1156 1543
is_linear=0
shrinkage=0.05


Tree=15
num_leaves=31
num_cat=0
split_feature=17 13 16 15 8 19 7 6 15 12 19 11 5 19 9 6 11 8 18 7 11 6 17 14 15 19 8 11 12 6
split_gain=3741.12 2947.47 2360.44 903.656 870.692 855.661 852.57 430.394 480.387 419.554 826.854 388.033 427.625 492.543 374.222 334.633 320.432 278.209 268.787 256.899 184.056 167.006 163.318 266.508 153.024 146.392 148.773 142.686 139.454 207.688
threshold=-0.99668225166821156 -0.041415112709570094 -0.048752316876542398 -1.1858243411476941 -0.59706787334135003 -0.8896291152712793 0.70276865857734105 0.95485818193230876 1.741007099857514 0.16109178122625381 1.5452364202199607 -0.73289094580318725 -0.58015752210194127 0.040706701112299577 0.39949266747058898 -1.3769986279509563 1.1688449302333654 -0.45117683214592469 0.19655527251484198 1.8265676230590293 1.7416252480414667 -0.042395140709737926 0.10455491809220697 0.20206278885189058 0.54880009281100595 -2.6013510205118213 -0.55703207016183154 0.72443043603992441 -0.87633542247261242 -1.1329394523683876
decision_type=2 2 2 2 2 2 2 2 2 2 2 2 2 2 2 2 2 2 2 2 2 2 2 2 2 2 2 2 2 2
left_child=3 11 6 9 5 -4 14 28 -9 10 -1 12 13 -2 -3 16 -7 -12 -11 -5 -10 25 23 -14 -21 -8 -27 -28 29 -6
right_child=1 2 4 19 7 15 21 8 20 18 17 -13 22 -15 -16 -17 -18 -19 -20 24 -22 -23 -24 -25 -26 26 27 -29 -30 -31
leaf_value=0.044742501261754747 -0.056046224199320739 0.045253300765124398 0.042546640632971366 0.056461827665434644 0.049451915581071051 0.040959438806142445 0.0099804086005062867 -0.052435925367720584 0.062548806340423369 0.021123713882903107 -0.061747787067812365 -0.06108631447867862 -0.051117999756098632 0.081503260685387088 -0.04242676246328074 -0.058792436235620561 -0.037170052073337949 0.037260644177285009 -0.054731223549937383 -0.014454058566734641 -0.060353934375344004 -0.058559147839245276 -0.060831056959661428 0.065800042705861372 0.046678691071426068 -0.058665115923545591 0.042211044183850417 -0.051891290449585639 0.053724022304505396 -0.018105289617922429
leaf_weight=1088.4957677125931 106.10986025631428 409.99892167747021 605.0928805321455 2840.1324778199196 300.36839297413826 231.29758669435978 179.09919327497482 246.64129890501499 219.24213972687721 174.1567949205637 310.57304249703884 2862.3376516103745 132.86690385639668 168.32640673220158 173.0606702119112 555.15781092643738 303.34770560264587 91.961552292108536 354.49308145046234 218.59886607527733 35.378214225172997 1461.6901156157255 497.10412390530109 76.978463664650917 192.51589412987232 392.17472949624062 86.349105089902878 75.508829459547997 2044.6976402103901 183.12267215549946
leaf_count=5065 522 1840 2711 14319 1465 1008 782 1136 1049 792 1515 14593 589 746 801 2489 1341 413 1586 951 161 7258 2537 354 912 1766 368 333 9774 824
internal_value=-1.01905e-05 -0.0161805 0.00206074 0.0347973 0.0235666 -0.00513072 -0.0345144 0.039622 -0.00270267 0.00853025 0.0220997 -0.0517841 -0.0246529 0.0283202 0.0192286 -0.0316027 -0.00336977 -0.0391287 -0.0297418 0.0511145 0.0454721 -0.0487913 -0.0452169 -0.00822846 0.014173 -0.0293165 -0.0420198 -0.00168892 0.0480137 0.0238646
internal_weight=16616.9 11346 7502.23 5270.93 4724.35 1694.9 2777.88 3029.45 501.262 2019.68 1491.03 3843.72 981.386 274.436 583.06 1089.8 534.645 402.535 528.65 3251.25 254.62 2194.82 706.949 209.845 411.115 733.132 554.033 161.858 2528.19 483.491
internal_count=80000 54447 35106 25553 21958 7549 13148 14409 2346 9371 6993 19341 4748 1268 2641 4838 2349 1928 2378 16182 1210 10507 3480 943 1863 3249 2467 701 12063 2289
is_linear=0
shrinkage=0.05


Tree=16
num_leaves=31
num_cat=0
split_feature=17 13 16 7 8 15 6 19 11 5 19 12 19 6 12 8 17 7 8 18 16 11 6 13 8 19 18 19 5 5
split_gain=3451.32 2842.46 2281.91 1210.6 732.813 711.684 567.77 532.776 409.044 416.662 624.429 381.018 603.469 306.712 321.365 261.277 228.77 206.765 190.01 183.671 175.287 209.255 229.328 135.054 133.17 142.866 135.113 129.019 150.451 128.423
threshold=-1.22058629278582 -0.16677231383705302 2.149412023709186 1.6389991174256429 -1.099852213719285 -1.359315756190101 0.98229815726152303 0.18213593630474875 -0.73289094580318725 0.23987963681187399 0.081096195274339769 0.37785691263173798 1.8273897913317909 -0.91903342760426288 3.3090172106311599 -0.25599622819558709 2.1984937467049925 2.1807069783342752 -0.23415986293833366 0.21475895022162525 5.5529498743242316 0.18762784577210831 0.66447007631742516 2.5261082863924398 -2.3273648315128543 -2.2041293919543521 1.3151440930451359 2.1692430703163859 2.5317041152229183 1.4107891347786583
decision_type=2 2 2 2 2 2 2 2 2 2 2 2 2 2 2 2 2 2 2 2 2 2 2 2 2 2 2 2 2 2
left_child=5 8 3 6 7 11 16 -4 9 10 -2 12 23 24 -15 -16 -3 -7 -14 -13 21 29 -23 -1 25 -5 -26 28 -8 -6
right_child=1 2 4 13 20 17 27 -9 -10 -11 -12 19 18 14 15 -17 -18 -19 -20 -21 -22 22 -24 -25 26 -27 -28 -29 -30 -31
leaf_value=0.046096781866686393 -0.056395427832324797 0.035434625316159138 0.030152936521483226 0.018421527074611612 0.06212324072099621 0.055527613778393117 -0.060866935479209398 -0.052136857753602051 -0.060506027559072174 -0.05034103235439822 0.069700529215932852 0.017355016105437965 -0.060254010116129512 -0.056289167998900318 -0.067762430578460098 0.059909999873446709 -0.033777054944003793 0.0097475744789469292 0.04407488578535191 -0.058900067089760935 0.057738014124367049 0.027368312144694009 -0.043948906280422841 -0.048140966048873482 0.027281617385791285 -0.068369146839615244 -0.031620538479261801 0.064458555694817024 0.03921454976373457 -0.00091434972001671038
leaf_weight=920.5104565769434 170.448436871171 1149.9368567317724 399.51896348595619 67.872603490948677 573.53973160684109 2694.9471032470465 315.21260453760624 387.44549664855003 2735.1708296835423 565.66614331305027 231.5591654330492 115.39451679587364 231.66932305693626 1983.377968236804 62.239237070083618 112.51467208564281 133.22569568455219 271.48641175031662 53.771843761205673 250.1445010304451 1294.9774570465088 672.26473170518875 135.42982168495655 39.656709134578705 263.17768877744675 157.31697292625904 154.52257193624973 26.971490293741226 42.630030855536461 94.042878642678261
leaf_count=4357 869 5243 1771 293 2841 13892 1513 1744 14305 2851 1063 525 1169 9893 297 486 619 1224 243 1134 6493 3145 599 174 1152 702 662 120 185 436
internal_value=-1.23626e-05 -0.0143827 0.00233582 -0.0214498 0.0322181 0.0368085 0.0122735 -0.0103607 -0.0506214 -0.0226822 0.0162367 0.0100572 0.0232292 -0.0415316 -0.050562 0.014439 0.0282487 0.0513378 -0.0406004 -0.0348276 0.0443137 0.0325301 0.0154102 0.0422046 -0.0112173 -0.0422103 0.00549156 -0.0409958 -0.0489442 0.0532431
internal_weight=16306.6 11729.1 8026.22 4469 3557.22 4577.58 1667.98 786.964 3702.84 967.674 402.008 1611.15 1245.61 2801.02 2158.13 174.754 1283.16 2966.43 285.441 365.539 2770.25 1475.28 807.695 960.167 642.89 225.19 417.7 384.814 357.843 667.583
internal_count=80000 57282 38194 21165 17029 22718 7680 3515 19088 4783 1932 7602 5943 13485 10676 783 5862 15116 1412 1659 13514 7021 3744 4531 2809 995 1814 1818 1698 3277
is_linear=0
shrinkage=0.05


Tree=17
num_leaves=31
num_cat=0
split_feature=17 13 15 6 6 8 19 12 14 5 12 18 5 5 12 8 16 16 7 18 5 12 6 17 17 13 18 12 14 11
split_gain=3212.72 1881.18 1738.27 1156.04 1023.75 1165.82 1152.26 724.144 578.729 331.452 283.746 267.415 273.189 257.3 250.079 364.114 250.056 246.447 199.541 192.034 375.638 291.94 188.448 186.549 175.794 195.447 152.196 150.648 204.513 146.503
threshold=0.40266006995398707 1.4319465721134703 0.47790333894446452 -0.16699561059652671 0.36190962739358767 -1.3208607542755686 -0.22066521832641892 0.39837391946924028 -5.5783509098475959 -1.4317936064565191 0.33555578877398456 1.0577304756301051 2.3565532414795443 -1.2671795651590463 2.5189005815936314 -0.63656401097203585 4.7431350439749353 5.717962307958099 3.706213441845752 -1.1291066262372156 0.94350801937764095 0.41893211293894783 -2.456813064538677 2.811109969553883 1.2693702521014179 0.06014655733260111 -0.47595781165862733 2.1646949058104332 2.588750536697169 0.22712882987007396
decision_type=2 2 2 2 2 2 2 2 2 2 2 2 2 2 2 2 2 2 2 2 2 2 2 2 2 2 2 2 2 2
left_child=2 14 4 9 5 6 7 -1 10 22 -6 12 -7 -13 24 -16 27 -14 -4 -10 -21 26 -3 -17 25 -2 -22 -5 -29 -8
right_child=1 3 18 16 8 11 29 -9 19 -11 -12 13 17 -15 15 23 -18 -19 -20 20 21 -23 -24 -25 -26 -27 -28 28 -30 -31
leaf_value=0.050464644463647228 -0.054370437948937658 0.045259615932279097 0.05498668637381271 -0.052462721292295858 0.058464744401282992 0.055537797007267381 -0.014331321516181567 -0.05288659694008422 -0.068628602819185633 0.045486055010971943 -0.065567195065364944 -0.046610432026155675 -0.042960189904312968 0.026765577058693237 -0.056605562205840544 0.055558508761085951 0.03117407943561817 0.041788064496618364 0.0033789150181605756 -0.051913083503516637 -0.05232407150812958 -0.045221498437555588 -0.036771409069921622 -0.041800132335276102 -0.059693029408802556 -0.01429565358609805 0.063935900990858649 -0.052864790355828896 0.048580619596938227 -0.064379160627142662
leaf_weight=697.09650041162968 680.27246297895908 101.88756255805492 2684.1733241081238 749.80066545307636 244.68037478625774 1657.1466877013445 183.63268478214741 223.93031048774719 439.64738835394382 1258.1782614290714 56.81840954720974 150.19245378673077 144.89129436016083 584.13368558883667 249.77910389006138 180.00229601562023 132.30544924736023 210.27897870540619 201.3522655069828 646.88400933146477 32.997509330511093 139.56595550477505 223.79096348583698 67.710280284285545 2398.0899169445038 550.42034658789635 191.63202399015427 102.12319433689117 96.748285382986069 717.75353828072548
leaf_count=3357 3687 462 14160 3849 1247 8074 842 1047 2070 6138 274 653 673 2700 1325 820 629 1076 886 3107 144 650 987 357 12850 2535 849 520 443 3589
internal_value=-1.44534e-05 -0.0261035 0.0192293 0.00664249 0.00455075 0.0170116 -0.0139948 0.0253367 -0.0279417 0.0338489 0.0350905 0.0375844 0.0470089 0.0117579 -0.0472516 -0.0140073 -0.0332206 0.00721511 0.0513855 -0.0410414 -0.0290457 0.0115713 -0.0111082 0.0289463 -0.0518093 -0.0364472 0.0468576 -0.0422013 -0.00351297 -0.0541833
internal_weight=15997.9 6791.11 9206.81 2664.83 6321.28 4569.06 1822.41 921.027 1752.23 1583.86 301.499 2746.64 2012.32 734.326 4126.27 497.492 1080.98 355.17 2885.53 1450.73 1011.08 364.195 325.679 247.713 3628.78 1230.69 224.63 948.672 198.871 901.386
internal_count=80000 34602 45398 13028 30352 22011 8835 4404 8341 7587 1521 13176 9823 3353 21574 2502 5441 1749 15046 6820 4750 1643 1449 1177 19072 6222 993 4812 963 4431
is_linear=0
shrinkage=0.05


Tree=18
num_leaves=31
num_cat=0
split_feature=17 13 6 8 19 15 15 8 5 5 11 5 19 10 8 7 6 19 17 13 6 18 8 19 13 7 8 12 11 19
split_gain=2998.78 2489.29 2006.13 888.036 811.507 628.512 612.91 710.919 585.172 412.564 379.804 377.36 490.635 346.897 336.48 325.388 311.414 305.864 256.141 395.688 238.26 236.77 180.676 346.944 186.054 169.875 162.774 237.132 162.293 151.496
threshold=-1.22058629278582 -0.16677231383705302 0.31634701487301914 -0.57630601640602774 -0.95565297511188552 -1.1858243411476941 1.7091023172042081 0.6543918038900759 -0.48508672644679041 2.1926939799903251 -0.73289094580318725 -0.084618198870480429 0.081096195274339769 -1.9385361541405211 -2.0145800277109251 -0.2939493852507819 -1.3987555481565812 2.8842912511534107 2.1984937467049925 1.8785269761400263 -1.900501369607541 0.17681842959818542 -0.53635656159747291 1.0669892274246096 1.7840668257600836 0.79415606820448226 -2.6279763187810374 -0.27575127523257653 1.0810368059315547 2.2671305826327712
decision_type=2 2 2 2 2 2 2 2 2 2 2 2 2 2 2 2 2 2 2 2 2 2 2 2 2 2 2 2 2 2
left_child=5 10 3 4 8 15 9 -8 20 29 11 12 -2 25 -6 17 28 -1 -15 -20 -3 -11 23 24 -7 -5 -17 -28 -16 -4
right_child=1 2 6 13 14 22 7 -9 -10 21 -12 -13 -14 18 16 26 -18 -19 19 -21 -22 -23 -24 -25 -26 -27 27 -29 -30 -31
leaf_value=0.040861790378936058 -0.052877663963588319 0.030387085422699814 -0.057626590984584919 0.03795545304888262 -0.061278442693881365 0.052953233104422549 -0.051903106984354963 0.054692314162184841 0.052350870364287518 -0.061081926669362588 -0.058343299237890223 -0.044972835106461349 0.070683066543387393 0.052634466145963212 0.048001152181029891 -0.05804469818234953 -0.043709819917531319 -0.045913055150073018 -0.052532038951427218 0.048388630145417361 -0.052142320360051814 0.068746128110900362 0.060160992310476814 -0.033381607593922079 -0.029474046405219053 -0.052476792580926593 0.034241965676184614 -0.030766112550756716 -0.013499072844629176 0.0085670422099542749
leaf_weight=833.94182166457176 133.73736959695816 135.76214039325714 1714.3764716684818 81.733523145318031 496.89306411147118 811.30614994466305 273.85783153772354 364.74415914714336 808.46731969714165 50.896649375557899 2592.7216532081366 596.23181116580963 201.22409965097904 2061.3711254000664 233.47976930439472 163.52785687148571 350.05449631810188 115.63073323667049 158.42996364831924 251.00189845263958 245.76476567983627 113.27881622314453 1664.2956477403641 162.9695021212101 74.769205987453461 142.41698271036148 255.74811926484108 310.70227251946926 198.44960294663906 91.028288811445236
leaf_count=4130 713 613 8850 383 2343 4274 1412 1861 3780 226 14305 3130 940 10433 1058 840 1606 604 740 1269 1165 496 9163 751 354 645 1175 1427 898 416
internal_value=-1.59617e-05 -0.013648 0.00215692 0.0202106 -0.00145273 0.0350377 -0.0335868 0.00897997 0.0282645 -0.0473884 -0.0485059 -0.0211157 0.02135 0.0400566 -0.0291046 0.0109992 -0.00866055 0.0302951 0.0454598 0.0093373 -0.0227751 0.0284976 0.0499174 0.0336662 0.0459978 -0.0195019 -0.0141014 -0.00141545 0.0197449 -0.0542891
internal_weight=15688.8 11295.9 7772.01 5163.82 2468.87 4392.89 2608.18 638.602 1189.99 1969.58 3523.91 931.193 334.961 2694.95 1278.88 1679.55 781.984 949.573 2470.8 409.432 381.527 164.175 2713.34 1049.04 886.075 224.151 729.978 566.45 431.929 1805.4
internal_count=80000 57282 38194 24933 11463 22718 13261 3273 5558 9988 19088 4783 1653 13470 5905 8176 3562 4734 12442 2009 1778 722 14542 5379 4628 1028 3442 2602 1956 9266
is_linear=0
shrinkage=0.05


Tree=19
num_leaves=31
num_cat=0
split_feature=17 13 15 6 6 8 19 12 14 5 6 13 8 11 12 8 12 14 7 6 6 18 17 16 14 11 6 5 18 12
split_gain=2784.44 1646.95 1534.65 1037.81 904.89 964.728 1144.41 776.315 416.64 415.257 309.544 322.743 284.249 223.149 205.562 292.123 202.331 240.625 182.191 159.383 156.772 156.451 155.649 149.621 144.168 136.632 163.048 134.473 404.503 204.461
threshold=0.40266006995398707 1.1882689008180403 0.47790333894446452 0.31634701487301914 0.73926947641097085 -1.0128972460804024 -0.01928727896125015 -0.022050650905437005 -6.9332122769400568 -0.65356760051906493 -0.78374309729897784 2.3220407711739153 -0.59706787334135003 0.086678288837516451 2.4412860258729312 -0.13911100954928049 1.9771880962499875 2.588750536697169 3.3551080371566684 -2.8194958332026583 -2.1988848097934728 1.4222571513764541 2.9584710876408629 -0.7519384696753425 1.0705409614187424 0.74388571111499313 -1.5023008211763833 0.86476738091066696 0.72550760493934086 0.47677665834970767
decision_type=2 2 2 2 2 2 2 2 2 2 2 2 2 2 2 2 2 2 2 2 2 2 2 2 2 2 2 2 2 2
left_child=2 14 4 9 5 6 7 -1 -6 12 21 -12 19 20 -2 -16 -5 -18 -4 -3 -8 -7 -17 -9 -20 -14 -27 -10 -29 -30
right_child=1 3 18 16 8 10 13 23 27 -11 11 -13 25 -15 15 22 17 -19 24 -21 -22 -23 -24 -25 -26 26 -28 28 29 -31
leaf_value=0.04888856446639428 -0.051631155001411438 0.031945745358685655 0.053260980343814074 -0.05225327431636994 0.045071139298854396 0.054490627688006804 0.04668639536171474 -0.058232644553075114 -0.057853351235127408 0.042904955984532485 0.023215378510253008 -0.065625494672546469 0.056702307757706773 -0.060660577140639452 -0.049696469372203844 0.056442194702641814 -0.049313163510482316 0.049737280091605135 -0.042503873641343858 -0.05730094452863025 -0.038576397589080054 0.011356100605937424 -0.04290603922477082 0.015869669492695537 0.037056173176565975 0.040535488558430054 -0.050102874057717489 -0.058595149519770011 0.070529803639633876 -0.042319848858545561
leaf_weight=859.79944314062595 3182.6370694041252 61.960173383355141 2505.0026714354753 712.30591896176338 151.90771099925041 1409.8590718656778 90.196297332644463 262.77259521186352 656.44545920193195 1199.9286880642176 795.40430290997028 117.30467729270458 172.26190848648548 807.3716426640749 276.77686415612698 145.99266830086708 122.16314861178398 123.10069823265076 89.35496574640274 259.73333832621574 134.01859618723392 247.05397863686085 54.009459391236305 91.957757532596588 156.96150416135788 100.6293031424284 97.87704636156559 306.21816354990005 127.18330606818199 58.645200461149216
leaf_count=4298 17720 269 13943 3844 817 7285 405 1271 3310 6027 3760 529 804 4187 1543 665 653 590 392 1219 630 1144 302 408 711 508 458 1445 582 281
internal_value=-1.61884e-05 -0.0248495 0.0182134 0.00364924 0.00426229 0.0142562 -0.00968021 0.0232121 -0.032748 0.0251122 0.0351791 0.0117972 -0.00571991 -0.0484057 -0.0470445 -0.0164269 -0.0387668 0.000401374 0.0492263 -0.0401115 -0.00427721 0.0480591 0.0296138 -0.0390229 0.00819458 0.0241196 -0.00415535 -0.0430409 -0.0232794 0.0349158
internal_weight=15376.8 6509.38 8867.46 2849.96 6116.14 4815.74 2246.12 1214.53 1300.4 1892.39 2569.62 912.709 692.462 1031.59 3659.42 476.779 957.57 245.264 2751.32 321.694 224.215 1656.91 200.002 354.73 246.316 370.768 198.506 1148.49 492.047 185.829
internal_count=80000 34602 45398 14372 30352 23917 11199 5977 6435 9285 12718 4289 3258 5222 20230 2510 5087 1243 15046 1488 1035 8429 967 1679 1103 1770 966 5618 2308 863
is_linear=0
shrinkage=0.05


Tree=20
num_leaves=31
num_cat=0
split_feature=17 13 16 8 19 7 15 9 12 10 11 5 19 6 15 6 11 19 7 6 12 6 15 19 12 14 5 6 6 11
split_gain=2618.77 2209.41 1781.05 817.913 757.98 742.647 531.337 366.779 327.337 499.093 311.128 345.653 503.52 309.165 336.483 272.646 315.466 182.853 182.172 179.084 172.338 232.242 202.027 159.43 158.709 178.245 158.159 213.181 148.359 135.211
threshold=-1.2745235563523949 -0.31688153008287506 -0.048752316876542398 -0.49393636844249561 -0.51052387613698469 0.91937540131448159 -1.4040295572072437 0.39949266747058898 0.042644322065917013 0.47727884249202285 -0.73289094580318725 0.64334248958771389 0.52882803999169403 1.4058756106662529 1.9449763044302604 -1.3769986279509563 1.0810368059315547 -1.4987012651219207 1.8265676230590293 -2.857349142303125 -0.68718757820098442 -1.1329394523683876 -1.7899528896160013 -0.40541904032595716 3.5698100491405063 0.30596623733927192 1.0000000180025095e-35 -1.3769986279509563 -0.042395140709737926 1.1028434623066155
decision_type=2 2 2 2 2 2 2 2 2 2 2 2 2 2 2 2 2 2 2 2 2 2 2 2 2 2 2 2 2 2
left_child=6 10 5 4 26 7 8 17 9 -1 11 12 -2 20 -15 16 -6 -3 -8 -11 21 -5 -23 -10 28 -26 27 -4 -7 -16
right_child=1 2 3 13 15 24 18 -9 23 19 -12 -13 -14 14 29 -17 -18 -19 -20 -21 -22 22 -24 -25 25 -27 -28 -29 -30 -31
leaf_value=0.044486588748787526 -0.04698599105098656 0.057260367222598543 0.035023167142946142 0.045507028461431419 0.036604338767091342 -0.029587856214636655 0.052193382887679524 -0.039094301342990086 -0.05599613427583431 0.035706762102234585 -0.057619144273689506 -0.05239112404414497 0.065470155851484788 -0.054375180071345355 0.061071476545288765 -0.056042190237968505 -0.039646282852303143 -0.0044916487357121162 0.011736668513409213 -0.057934711863171 0.049259665362894035 0.048142959725713141 -0.048742437494267592 0.0097952674355757385 -0.063832167269311485 0.061086883272835235 0.045641927418713396 -0.060167257583908354 -0.057894347300187589 -0.052818407542671864
leaf_weight=775.84101639688015 190.84244649112225 346.05877348780632 150.30356785655022 337.42809297144413 237.80119809508324 715.5278779566288 2340.2940227240324 235.86034533381462 231.77359530329704 68.253697916865349 2304.1632313281298 446.05412963032722 208.05343924462795 184.1523929387331 151.03167685866356 575.40121878683567 315.76048237085342 183.41447103023529 315.80056646466255 202.65384517610073 2023.0047665983438 78.637720718979836 170.39757759869099 152.77855077385902 47.382119715213776 71.871859073638916 572.89677821099758 96.62999615073204 1311.0438032001257 31.494817614555359
leaf_count=3917 1064 1672 699 1839 1100 3397 13364 1194 1104 362 13431 2450 1006 921 810 2785 1514 861 1524 1095 10652 368 821 722 242 312 2760 440 7422 152
internal_value=-1.7204e-05 -0.0127301 0.00148494 0.0198119 -0.00536879 -0.0295196 0.0341497 0.0127668 0.00959199 0.024085 -0.0481021 -0.0221491 0.0116681 0.0363003 -0.00669004 -0.0319416 -0.00689024 0.0358689 0.0473832 -0.0343422 0.0423413 0.0184762 -0.018149 -0.0298579 -0.0446015 0.0114539 0.0312238 -0.00222673 -0.0479001 0.0414199
internal_weight=15072.6 10985.2 7836.1 4924.94 1948.79 2911.16 4087.4 765.334 1431.3 1046.75 3149.11 844.95 398.896 2976.15 366.679 1128.96 553.562 529.473 2656.09 270.908 2609.47 586.463 249.035 384.552 2145.83 119.254 819.83 246.934 2026.57 182.526
internal_count=80000 57912 39961 24861 9298 15100 22088 3727 7200 5374 17951 4520 2070 15563 1883 5399 2614 2533 14888 1457 13680 3028 1189 1826 11373 554 3899 1139 10819 962
is_linear=0
shrinkage=0.05


Tree=21
num_leaves=31
num_cat=0
split_feature=17 13 16 15 5 8 19 7 12 6 6 19 8 11 5 19 10 11 8 10 19 11 7 6 18 11 13 17 14 17
split_gain=2420.99 1955.09 1498.83 712.669 611.144 595.359 558.892 397.704 370.926 363.815 337.34 336.041 298.939 275.995 337.871 401.875 240.031 276.456 211.383 260.154 206.933 178.747 155.868 150.276 166.232 144.209 159.285 138.51 245.82 137.982
threshold=-0.87404095443786478 -0.041415112709570094 -0.048752316876542398 -0.23842192338488757 0.9245794557149013 -0.05894712339484736 -0.80296942094117385 0.031455055581434764 0.84446950606241022 -1.3561006150964088 -1.0955657504563894 2.5020470696228423 -2.0676848388478555 -0.3927771609301956 -0.75573341592084209 0.021493250963060821 -0.54526062268025932 0.28990777006829266 -2.6626756875332842 -2.8983710055941443 2.2357499567039594 -1.0440535105186235 3.156484884180434 1.3705380660394364 0.41381473858192702 1.0810368059315547 1.4524185563768313 0.20845237181740031 0.43824701333448274 2.162700696452589
decision_type=2 2 2 2 2 2 2 2 2 2 2 2 2 2 2 2 2 2 2 2 2 2 2 2 2 2 2 2 2 2
left_child=3 13 4 7 10 6 -4 11 -6 12 22 23 -8 14 15 -2 17 -7 -9 -20 -12 -13 -3 -1 -25 -14 -27 28 -16 -18
right_child=1 2 5 -5 8 16 9 18 -10 -11 20 21 25 -15 27 -17 29 -19 19 -21 -22 -23 -24 24 -26 26 -28 -29 -30 -31
leaf_value=0.042947832752372461 -0.051584626166865072 0.021882524647997594 0.035143342629700994 0.049488729090487862 0.062170684740227848 0.051765233147720704 -0.053814029836617899 -0.05255230603040778 -0.056498223711635868 -0.046957298866500519 -0.053808710794995607 0.041515077181475186 0.048879917239385305 -0.056628549461487487 -0.047243785989055653 0.075694431594451439 0.051135370489487367 -0.041496959459124419 -0.042526701600468148 0.017006110069775194 0.044218516084827519 -0.054273259335181873 -0.040213982368488319 -0.074493442817064673 0.029367224689089769 -0.053617788917140155 0.032619499459412199 -0.05564108047897192 0.056916298249517251 0.014289039840902466
leaf_weight=1215.2392288297415 103.95923274755478 274.41919288039207 720.85147541761398 2215.4529052823782 256.15908749401569 138.47620825469494 157.48458905518055 242.95264945924282 88.634357616305351 630.85801148414612 1596.2408993691206 67.859259068965912 280.84017831087112 2163.1670113056898 161.00512290000916 153.7226656973362 1505.9329437464476 186.45176349580288 256.843875259161 642.71488592028618 55.715575963258743 172.52329407632351 159.96386404335499 59.690117284655571 108.65567110478878 95.708731308579445 121.54770565032959 545.51269008219242 87.389098584651947 305.65228801965714
leaf_count=6388 592 1279 3502 13081 1212 700 745 1292 435 3065 8939 330 1384 13108 774 718 8179 928 1224 3034 256 940 731 264 575 449 582 3280 425 1589
internal_value=-1.87606e-05 -0.0144588 0.00116541 0.0283564 -0.0300016 0.0194508 -0.000101908 0.0114332 0.0316651 -0.0198515 -0.0401928 0.0273343 0.00623218 -0.0464139 -0.0254018 0.0243449 0.037821 -0.00175094 -0.0111687 8.17873e-06 -0.0505025 -0.0272325 -0.000984843 0.0368147 -0.0074585 0.0252172 -0.00537091 -0.0415484 -0.0105986 0.0449186
internal_weight=14771.6 9789.69 6574.94 4981.93 2431.13 4143.8 2007.29 2766.48 344.793 1286.44 2086.34 1623.97 655.581 3214.76 1051.59 257.682 2136.51 324.928 1142.51 899.559 1651.96 240.383 434.383 1383.59 168.346 498.097 217.256 793.907 248.394 1811.59
internal_count=80000 52872 33975 27128 12852 21123 9727 14047 1647 6225 11205 8497 3160 18897 5789 1310 11396 1628 5550 4258 9195 1270 2010 7227 839 2415 1031 4479 1199 9768
is_linear=0
shrinkage=0.05


Tree=22
num_leaves=31
num_cat=0
split_feature=17 15 13 6 8 19 6 12 14 5 18 12 12 8 19 12 8 11 5 5 19 5 16 17 6 5 7 18 5 8
split_gain=2255.72 1420.07 1321.19 931.331 978.212 1066.95 779.939 675.858 456.224 324.47 271.907 257.336 201.513 201.121 195.507 193.074 271.784 192.881 189.978 180.531 229.478 172.889 205.177 172.577 167.657 154.934 154.836 149.558 227.264 137.931
threshold=0.59705203058467182 0.76594385274173704 1.4524185563768313 0.47628331076218627 -0.82412865871494601 0.57427643371214721 -0.99778032852924181 0.60093299302939684 -5.8110813189699018 0.18030643604138871 1.1702699450659897 1.8880946734120541 -0.081821143921055536 0.45423515744258702 -0.73850485158269275 2.2287998425183648 -0.71910378864918079 0.086678288837516451 -1.2963635536042399 -0.50867287614721257 -0.038565994145176356 2.3565532414795443 5.717962307958099 -1.3000941141953803 1.6540945731524184 2.1343700595476145 4.3019555078091694 -1.1086754934636665 0.94350801937764095 -1.9869172194915268
decision_type=2 2 2 2 2 2 2 2 2 2 2 2 2 2 2 2 2 2 2 2 2 2 2 2 2 2 2 2 2 2
left_child=1 3 15 4 5 7 29 14 12 11 21 -8 -5 -13 -1 -2 -17 25 -12 20 -18 -6 -23 -16 27 -7 -3 -10 -29 -4
right_child=2 26 6 8 10 17 9 -9 24 -11 18 13 -14 -15 23 16 19 -19 -20 -21 -22 22 -24 -25 -26 -27 -28 28 -30 -31
leaf_value=0.049702375546300935 -0.049772959625741131 0.052350013992646285 -0.003201255388412812 0.056577579775625303 0.053100143021355628 0.033426459539729482 -0.053698550623638944 -0.043951042400233196 -0.057209708666995089 0.021459407180061268 -0.045592301522351747 -0.046455531168340954 -0.053268607322693687 0.047298408376312356 0.042892349921560796 -0.053477485657093649 -0.040721602822452463 -0.061962608206092833 0.022667958715993454 -0.030639048402010344 0.090624818526564968 -0.037069987077709914 0.04421314282616657 -0.026158773895317979 -0.060001989630014622 -0.053518896677744669 -0.0040095743956989442 -0.037231237428064994 0.025795079304534774 0.046523139090764151
leaf_weight=814.91939094662666 2844.5005882382393 2191.8236287385225 167.9302726984024 199.45382787287235 1559.2682332396507 109.88305941224098 647.78459058701992 339.70703065395355 254.11545841395855 317.87259882688522 132.94223186373711 99.456810891628265 52.805410549044609 134.64375019073486 167.71343868970871 260.9099482446909 47.106231138110161 723.91817550361156 436.97423186898232 112.49582813680172 113.08552621304989 125.48878446221352 203.59844870865345 196.50703056156635 582.28262457251549 96.005252301692963 129.03894992172718 348.16503980755806 242.75782036781311 822.74091257154942
leaf_count=4254 17048 13072 785 1143 8448 499 3668 1683 1317 1610 605 553 275 679 889 1590 266 4039 2142 644 500 618 1201 940 3067 485 600 1796 1160 4424
internal_value=-2.13491e-05 0.0155844 -0.0249842 0.00373365 0.0147336 -0.00763471 0.00526074 0.0181889 -0.0284029 -0.0218508 0.0370144 -0.0374618 0.0335835 0.00746737 0.0360913 -0.0445957 -0.0169968 -0.0498178 0.00674515 0.0179082 0.0520009 0.0461498 0.013218 0.00563736 -0.0393581 -0.00711596 0.0492164 -0.0251332 -0.0113393 0.0380943
internal_weight=14475.9 8907.37 5568.53 6586.51 4906.93 2448.65 2190.43 1518.85 1679.58 1199.76 2458.27 881.885 252.259 234.101 1179.14 3378.1 533.598 929.806 569.916 272.688 160.192 1888.36 329.087 364.22 1427.32 205.888 2320.86 845.038 590.923 990.671
internal_count=80000 48233 31767 34561 25803 12789 11719 7766 8758 6510 13014 4900 1418 1232 6083 20048 3000 5023 2747 1410 766 10267 1819 1829 7340 984 13672 4273 2956 5209
is_linear=0
shrinkage=0.05


Tree=23
num_leaves=31
num_cat=0
split_feature=17 13 6 8 5 19 15 8 15 5 6 8 18 11 5 19 7 5 10 17 8 12 13 15 8 19 13 6 5 12
split_gain=2121.38 1844.01 1481.27 699.715 522.072 585.041 481.236 610.155 451.084 366.952 324.354 307.304 283.582 274.859 296.814 418.558 250.334 228.889 219.848 187.214 166.005 223.396 165.735 154.935 153.76 272.023 159.896 147.063 141.32 134.901
threshold=-1.2745235563523949 -0.31688153008287506 0.31634701487301914 -0.05894712339484736 -0.70182110642552897 -0.95565297511188552 1.5005481677423915 0.67674108323952142 -1.1200806397466883 1.6518177518660635 -2.0902445884351382 -1.7256091768703823 1.0803760517519798 -0.73289094580318725 0.64334248958771389 0.46925740388074938 -1.0664537422097899 3.3666451405965616 -2.1939234727452028 3.1171972704267454 -2.2684819691096423 -0.33944150370692028 2.293690186469131 -2.4265231217377674 -0.53635656159747291 1.0669892274246096 1.7840668257600836 -1.0955657504563894 2.9148433290396114 0.082572487642805406
decision_type=2 2 2 2 2 2 2 2 2 2 2 2 2 2 2 2 2 2 2 2 2 2 2 2 2 2 2 2 2 2
left_child=8 13 3 4 10 -6 9 28 16 -4 -3 -7 -11 14 15 -2 17 -1 -5 -20 -18 -22 -21 -23 25 26 -10 -13 -8 -9
right_child=1 2 6 18 5 11 7 29 24 12 -12 27 -14 -15 -16 -17 20 -19 19 22 21 23 -24 -25 -26 -27 -28 -29 -30 -31
leaf_value=0.044062874502587744 -0.044842349569027953 0.013697052269870506 -0.052999450669477026 -0.015647891199725285 0.044323202949955252 -0.044802995959422054 -0.05668750615552081 -0.027658473862679268 0.048867231505667269 -0.039365061728146029 -0.050653627465360153 0.025588253881906428 0.066684137586244863 -0.054999401557790928 -0.049582737939585536 0.060911451858939127 -0.045921097385397229 -0.036855910852533626 0.049503719036222388 -0.062628000736249079 0.037560597731941314 -0.051482925243839905 0.046605751883953703 0.018423942290599168 0.056178186614142568 -0.033413131812086487 -0.032303292989436315 -0.021836959071184794 0.067213269750150226 0.061391602117941507
leaf_weight=612.44022010266781 174.91254672408104 287.86067116260529 1540.439009681344 163.12393862009048 953.93987917900085 389.46325734257698 279.05828033387661 49.142174035310745 685.36107803881168 130.04453140497208 612.41486413776875 498.71965725719929 122.34318199753761 2112.597208455205 415.52083851397038 201.17257146537304 213.02882054448128 101.93639236688614 1694.7848455160856 73.191600233316422 286.43185018002987 193.72230963408947 66.071640312671661 134.1416509449482 1397.0347705334425 143.62949731945992 66.5636146068573 243.16886372864246 25.082815572619438 316.03722062706947
leaf_count=3359 1050 1372 8929 784 4810 1959 1622 276 4081 618 3147 2561 562 13431 2450 1020 1189 569 9545 368 1431 925 366 646 8870 688 330 1150 117 1775
internal_value=-2.13439e-05 -0.0117915 0.00139063 0.0170683 0.00174361 0.0154817 -0.0303368 0.00584117 0.0317473 -0.0438432 -0.0300777 -0.00883706 0.0120415 -0.0455836 -0.0204552 0.0117267 0.0108341 0.0325163 0.0399771 0.0449245 -0.007888 0.00530132 -0.0108035 -0.0228814 0.0458108 0.0296379 0.0416817 0.0100437 -0.0464693 0.0494081
internal_weight=14183.4 10349.1 7444.89 4982.74 2985.57 2085.29 2462.15 669.32 3834.29 1792.83 900.276 1131.35 252.388 2904.2 791.606 376.085 1541.7 714.377 1997.17 1834.05 827.325 614.296 139.263 327.864 2292.59 895.554 751.925 741.889 304.141 365.179
internal_count=80000 57912 39961 26062 14999 10480 13899 3790 22088 10109 4519 5670 1180 17951 4520 2070 8119 3928 11063 10279 4191 3002 734 1571 13969 5099 4411 3711 1739 2051
is_linear=0
shrinkage=0.05


Tree=24
num_leaves=31
num_cat=0
split_feature=17 15 13 6 8 19 12 6 14 18 19 17 11 14 5 12 8 6 5 16 7 8 15 5 7 13 19 5 13 18
split_gain=1975.42 1377.18 1104.49 924.389 919.11 1032.89 710.779 618 362.113 289.51 243.574 244.851 224.674 197.22 196.096 186.093 226.258 180.031 169.196 178.534 165.055 154.529 206.117 144.098 143.756 142.945 151.148 134.673 129.544 190.395
threshold=0.86619426750573258 0.76594385274173704 1.6682600165235504 0.76638685108981441 -0.65716269981001896 0.63414991626112516 0.60093299302939684 -0.60953526276630621 -7.2627890239261363 1.1702699450659897 -1.0700076109586181 -1.3000941141953803 0.086678288837516451 1.6784822729926152 -0.084618198870480429 2.2287998425183648 -0.55703207016183154 -2.1708999309191435 2.3565532414795443 4.7431350439749353 3.706213441845752 0.82386915524842474 1.1101740798007746 -2.7578376406395315 0.097125003643249483 -0.86648778941412019 -0.34197850554307191 1.2049034997638148 0.79803698027451675 2.1959666707660577
decision_type=2 2 2 2 2 2 2 2 2 2 2 2 2 2 2 2 2 2 2 2 2 2 2 2 2 2 2 2 2 2
left_child=1 3 15 4 5 6 10 23 -5 18 -1 -12 17 -8 24 -2 -17 -7 -6 -20 -3 27 -23 -4 -11 -18 -27 -9 29 -10
right_child=2 20 7 8 9 12 13 21 28 14 11 -13 -14 -15 -16 16 25 -19 19 -21 -22 22 -24 -25 -26 26 -28 -29 -30 -31
leaf_value=0.049576024064118783 -0.050155996215932322 0.050747514533766074 -0.037778348638824566 0.045902061845821851 0.050021666734367226 0.042985397802503607 -0.053978710313209825 -0.054284621515087561 -0.037570796736915518 0.041505098895740056 0.044677955161737878 -0.020120844139199078 -0.059804744757225831 0.042684127292700394 0.029534241668862676 -0.050149036881581448 -0.03966616462659469 -0.041758778969467475 -0.04570419812195553 0.035168316379013555 0.0058565149570995482 -0.039967984377493743 0.040863373089331037 0.040745766255673596 -0.046221101204286179 -0.033448314096919181 0.073220595064105373 0.026682883770364582 -0.06052045428404397 0.038735764798325779
leaf_weight=829.85020534694195 2512.9117491990328 2123.4962595254183 62.959925547242165 130.44436164200306 1582.2673265337944 108.11248716711998 379.95376844704151 411.56724175810814 686.2504510730505 59.482696309685707 255.19921307265759 340.02123664319515 806.72327025234699 61.278409495949745 334.29366406798363 245.11335825920105 74.066424205899239 149.10526107251644 98.876460462808609 220.2723572999239 226.61425229907036 155.4174437224865 160.11999782919884 810.9719600379467 217.28768110275269 45.836622565984726 120.55509048700333 58.679316982626915 530.21402907371521 92.801854446530342
leaf_count=4466 15900 13352 294 787 8925 517 1976 2431 3741 296 1430 1689 4728 291 1709 1570 469 755 499 1335 1105 924 854 4469 1022 257 545 274 2902 488
internal_value=-2.14125e-05 0.0133718 -0.0265668 0.00208743 0.0115119 -0.00751403 0.0148996 0.00615794 -0.033541 0.0337013 0.0320692 0.00766147 -0.0468307 -0.0405542 0.00376175 -0.0446805 -0.016344 -0.00613953 0.0433231 0.010113 0.0464188 -0.0260182 0.00105002 0.0350887 -0.0273672 0.0181155 0.0438361 -0.0441812 -0.0414561 -0.028481
internal_weight=13890.7 9232.55 4658.2 6882.43 5442.72 2930.24 1866.3 1659.72 1439.71 2512.48 1425.07 595.22 1063.94 441.232 611.064 2998.48 485.571 257.218 1901.42 319.149 2350.11 785.784 315.537 873.932 276.77 240.458 166.392 470.247 1309.27 779.052
internal_count=80000 52013 27987 37556 29638 15852 9852 9246 7918 13786 7585 3119 6000 2267 3027 18741 2841 1272 10759 1834 14457 4483 1778 4763 1318 1271 802 2705 7131 4229
is_linear=0
shrinkage=0.05


Tree=25
num_leaves=31
num_cat=0
split_feature=17 13 6 8 19 15 8 15 5 7 5 8 18 10 11 5 19 6 17 13 19 8 13 16 11 19 11 6 7 5
split_gain=1851.27 1643.78 1302.83 626.57 598.796 414.192 490.7 406.375 339.259 323.072 320.877 301.62 258.742 248.207 246.18 292.195 328.373 235.303 228.691 314.61 217.11 167.941 220.172 154.088 149.064 148.057 145.462 144.003 141.017 124.545
threshold=-1.2745235563523949 -0.33712866049538098 0.36190962739358767 -0.57630601640602774 -1.318969183363236 1.7091023172042081 0.6543918038900759 0.10214168299269251 -0.58015752210194127 0.031455055581434764 1.6518177518660635 -2.0415277370597171 1.0803760517519798 -1.9385361541405211 -0.56791899836873927 -0.084618198870480429 0.061074045547451668 -1.3987555481565812 2.162700696452589 1.8785269761400263 3.1371082913073676 -2.6626756875332842 2.1067325858156987 -1.80105295651296 1.0810368059315547 2.2357499567039594 -0.018112273897016803 -1.900501369607541 0.79415606820448226 0.56324015614934264
decision_type=2 2 2 2 2 2 2 2 2 2 2 2 2 2 2 2 2 2 2 2 2 2 2 2 2 2 2 2 2 2
left_child=7 14 3 4 8 10 -7 9 27 20 25 -6 -12 28 15 16 -2 24 -15 -20 -1 -11 23 -23 -13 -4 -27 -3 -5 -19
right_child=1 2 5 13 11 6 -8 -9 -10 21 12 17 -14 18 -16 -17 -18 29 19 -21 -22 22 -24 -25 -26 26 -28 -29 -30 -31
leaf_value=0.037684347082800891 -0.047590177557816006 0.030939981189963973 -0.054110984823611499 0.034181349735682341 -0.052235439338651213 -0.046183080228681901 0.048491715623524299 0.050884232612407855 0.047415477913324178 -0.051032343980136889 -0.038057720906076918 0.044171396817747739 0.064993553879351629 0.04579397172493388 -0.054327649155981053 -0.043067786585788609 0.062105744441937019 -0.056269791751545742 -0.048102100101999987 0.042039828175759242 -0.033041819829055782 -0.028409473959165533 -0.049296710910453088 0.035730394340201289 -0.011308775579298901 0.07084459901504804 -0.056330101535549564 -0.043839172598201685 -0.046809580207100354 -0.0013811239265399369
leaf_weight=1266.5293727517128 112.04012162983418 98.9385616928339 1421.5454856157303 86.394070729613304 539.66196236014366 239.80519431829453 318.82703538239002 1453.4345557689667 679.45886744558811 177.03534638881683 126.32479557394981 262.8109699934721 117.63112710416317 1866.1541745886207 1887.1669310182333 550.05910211801529 174.44174522906542 237.96861949563026 167.48152936995029 229.34874902665615 118.67458921670914 124.61885130405426 149.8095155954361 376.65455549955368 224.48358212411404 48.490997523069382 41.924817860126495 184.31621666252613 142.2186718583107 182.68686720728874
leaf_count=7292 715 474 8771 435 2869 1441 1885 9861 3515 1017 616 1283 548 10842 12751 3387 903 1230 858 1308 699 620 726 1873 1102 226 212 977 690 874
internal_value=-2.205e-05 -0.0112233 0.00126811 0.0158664 -0.00230856 -0.0296491 0.00785047 0.0303434 0.0282511 0.0168548 -0.0415794 -0.0226319 0.0116317 0.0334484 -0.0443195 -0.0217419 0.0192048 -0.00503625 0.0384643 0.00399558 0.031625 -0.00785152 0.00388974 0.0197849 0.0186132 -0.050165 0.0118751 -0.0177194 -0.0162026 -0.0324321
internal_weight=13606.9 9940.18 7216.47 4901.92 2410.33 2314.55 558.632 3666.76 962.714 2213.32 1755.92 1447.61 243.956 2491.6 2723.71 836.541 286.482 907.95 2262.98 396.83 1385.2 828.118 651.083 501.273 487.295 1511.96 90.4158 283.255 228.613 420.655
internal_count=80000 57912 40156 26457 12324 13699 3326 22088 4966 12227 10373 7358 1164 14133 17756 5005 1618 4489 13008 2166 7991 4236 3219 2493 2385 9209 438 1451 1125 2104
is_linear=0
shrinkage=0.05


Tree=26
num_leaves=31
num_cat=0
split_feature=17 15 13 6 8 19 6 17 12 13 6 5 18 13 18 5 8 12 11 14 12 8 5 19 7 5 19 13 12 10
split_gain=1727.5 1209.7 987.616 796.762 841.577 618.738 557.896 523.18 384.38 271.98 241.515 207.381 200.478 195.311 268.78 342.896 321.281 233.35 186.648 251.351 181.311 218.629 155.754 167.202 141.683 140.834 181.21 131.199 127.677 123.19
threshold=0.79419191058519478 0.76594385274173704 1.6682600165235504 -0.45737778675277752 -1.3208607542755686 -0.22066521832641892 -0.99778032852924181 -2.3668416968185575 0.82437395836583549 0.91589957218642704 1.4391558493751926 0.30222667352065086 0.5367025383148285 2.3220407711739153 -0.47595781165862733 0.50253283289441064 0.038883334801797405 0.82437395836583549 0.70416343621833988 2.7213174812922127 2.2287998425183648 -0.63656401097203585 2.5018251458144087 2.1021766870262364 3.4888055852187185 -0.50867287614721257 -0.34197850554307191 -1.1072424360850046 1.5795842579653157 0.47727884249202285
decision_type=2 2 2 2 2 2 2 2 2 2 2 2 2 2 2 2 2 2 2 2 2 2 2 2 2 2 2 2 2 2
left_child=1 3 20 4 5 8 -4 9 -1 29 13 18 22 14 16 -16 -9 27 19 -8 -2 -22 -6 -24 -3 26 -23 -17 -26 -5
right_child=2 24 6 7 12 -7 11 10 -10 -11 -12 -13 -14 -15 15 17 -18 -19 -20 -21 21 25 23 -25 28 -27 -28 -29 -30 -31
leaf_value=0.040808583205393933 -0.047633756089968511 0.049573933767374817 0.037220259860275905 0.048845967071932749 0.054586891154630029 -0.045844383230832286 -0.049953295233188671 -0.059017337543506715 -0.049573611135073505 -0.061050240339394747 -0.052909559931485266 0.022244696573167154 0.015236954827293975 -0.065734951895485519 -0.029548740926061547 -0.052858298109036597 0.03105526385683114 -0.031358811898639059 -0.055927575921175414 0.045948356464248899 -0.048928003060691644 -0.045349906049266302 0.040033296040694749 -0.043884532896558692 -0.028906800983742098 -0.028343318445751959 0.08065329658196739 0.058607292542685922 0.04428682660133567 -0.034868371423686553
leaf_weight=535.37168288230896 2466.4978393167257 1959.6072777807713 770.07591782510281 429.06701193749905 1244.1829394176602 700.89321544766426 137.95573802292347 433.60693900287151 150.76040360331535 76.884902954101562 678.27362920343876 212.22536884248257 731.52302164584398 185.87883377075195 391.44135842472315 28.434595450758934 128.29287542402744 111.05421447753906 405.12515679001808 135.36163273453712 232.36196219921112 38.195247873663902 182.33065135776997 88.007855802774429 115.77479848265648 97.356586948037148 112.8045796751976 368.76471482217312 122.75266055762768 48.960339695215225
leaf_count=2956 16400 13070 4386 2510 7401 4186 893 2424 803 394 3938 1130 3860 965 2115 145 694 579 2475 725 1574 239 1156 490 555 601 509 1908 627 292
internal_value=-2.36749e-05 0.013072 -0.0247826 0.00224859 0.01782 -0.0128029 0.00605388 -0.01739 0.0209494 0.0262333 -0.0277983 -0.0208927 0.036731 -0.0174599 -0.0113205 0.00562432 -0.038452 0.0327135 -0.0343867 -0.00245758 -0.0421588 -0.0140675 0.0471127 0.0127141 0.0451451 0.0185479 0.0487809 0.0506277 0.00876061 0.0402718
internal_weight=13319.8 8711.86 4607.96 6513.73 3633.07 1387.03 1660.74 2880.66 686.132 554.912 2325.75 890.668 2246.04 1647.47 1461.59 899.695 561.9 508.254 678.443 273.317 2947.22 480.718 1514.52 270.339 2198.13 248.356 151 397.199 238.527 478.027
internal_count=80000 51068 28932 36816 20852 7945 9609 15964 3759 3196 12768 5223 12907 8830 7865 4747 3118 2632 4093 1618 19323 2923 9047 1646 14252 1349 748 2053 1182 2802
is_linear=0
shrinkage=0.05


Tree=27
num_leaves=31
num_cat=0
split_feature=17 13 6 8 5 19 6 8 15 5 15 11 5 19 12 19 8 15 18 10 11 17 8 19 13 12 18 13 6 8
split_gain=1611.21 1463.35 1138.11 566.353 434.291 487.874 393.444 374.851 524.792 381.66 371.466 232.767 266.594 246.484 222.612 411.118 205.951 202.962 201.937 187.61 173.2 158.918 156.474 242.609 147.868 145.643 139.642 133.764 133.385 118.386
threshold=-1.2745235563523949 -0.33712866049538098 0.36190962739358767 -0.05894712339484736 1.0000000180025095e-35 0.24259230124213552 -1.8300656315572501 1.2123919721458878 0.73883445239812051 2.1926939799903251 -1.1858243411476941 -0.56791899836873927 -0.58015752210194127 0.061074045547451668 -0.33944150370692028 1.0669892274246096 -0.69706799920174678 -2.8084000337698587 0.39304559049022014 -2.1939234727452028 1.6885646417163285 3.1171972704267454 -0.53635656159747291 1.0669892274246096 1.4319465721134703 0.76261782963242775 1.4467406439798522 2.4363943539297885 -1.0570921400934703 -1.5311534875606607
decision_type=2 2 2 2 2 2 2 2 2 2 2 2 2 2 2 2 2 2 2 2 2 2 2 2 2 2 2 2 2 2
left_child=10 11 3 4 6 -6 20 9 -9 -4 14 12 13 -2 15 -1 -17 -16 -11 -5 26 -21 23 24 -12 -10 -3 -23 -26 -19
right_child=1 2 7 19 5 -7 -8 8 25 18 22 -13 -14 -15 17 16 -18 29 -20 21 -22 27 -24 -25 28 -27 -28 -29 -30 -31
leaf_value=0.045413792366436105 -0.045921054996899663 0.052684701040686802 -0.050182691307501276 -0.014716024847841206 0.036387173304211692 -0.023417207895596398 -0.043389563597505149 -0.045032820271950047 -0.015949475994725522 -0.051504450223881428 0.046714192520801626 -0.052886373460800176 -0.037945629752502819 0.066081663062081505 -0.055333485537371913 -0.054065779260786997 0.035479753604173117 -0.05314741831727008 0.066028826939331473 0.045803345838742154 -0.024919529056543228 -0.057004498960454113 0.053479381163758388 -0.032897672091843674 0.041072792305119205 0.062767944197832257 -0.03190320579067709 0.044094639150794639 -0.079790949999090754 0.029178577568061134
leaf_weight=645.75000894069672 75.449799165129662 252.84476247429848 1396.876404248178 163.3013219088316 1126.7218774706125 489.03683749586344 763.90605095028877 296.28100153803825 75.074712574481964 53.225721582770348 612.66737128794193 1781.0135603174567 587.07562890648842 140.76933259516954 212.00598120689392 202.65940980613232 93.993225455284119 56.074712753295898 116.61592550575733 1573.9673730060458 182.44196039438248 72.366047084331512 1252.6473432481289 146.30326600372791 44.124120593070984 270.41155108809471 60.457471191883087 59.716290935873985 47.295038729906082 197.37236800789833
leaf_count=3735 500 1295 8904 816 5957 2631 4136 1896 454 263 4025 12751 3772 733 1064 1255 510 311 561 9648 935 392 8952 721 262 1621 289 358 229 1024
internal_value=-2.33708e-05 -0.0106834 0.00125661 0.0150576 0.00112912 0.0182864 -0.0208785 -0.0283937 0.00379173 -0.0415776 0.0289352 -0.0428087 -0.020465 0.0269982 0.00905751 0.0230304 -0.0256936 -0.0192333 0.0291957 0.0364821 0.0138093 0.0413827 0.0422421 0.0256892 0.037863 0.0456625 0.0363619 -0.0112962 -0.0214552 0.0109641
internal_weight=13048.4 9537.55 6953.25 4744.76 2875.41 1615.76 1259.65 2208.49 641.767 1566.72 3510.89 2584.31 803.295 216.219 1407.86 942.403 296.653 465.453 169.842 1869.35 495.744 1706.05 2103.04 850.39 704.087 345.486 313.302 132.082 91.4192 253.447
internal_count=80000 57912 40156 26457 15243 8588 6655 13699 3971 9728 22088 17756 5005 1233 7899 5500 1765 2399 824 11214 2519 10398 14189 5237 4516 2075 1584 750 491 1335
is_linear=0
shrinkage=0.05


Tree=28
num_leaves=31
num_cat=0
split_feature=17 15 13 6 8 19 12 6 18 18 11 5 19 17 14 6 13 15 12 5 12 8 12 8 6 7 13 8 12 8
split_gain=1518.56 1082.92 859.23 733.97 718.441 872.637 649.758 476.869 276.993 249.083 245.135 203.481 198.811 204.694 185.805 183.058 182.047 198.978 184.595 174.503 164.69 189.967 161.884 144.117 142.86 136.64 136.074 128.39 123.095 122.279
